SVM-light Version V6.02
3 # kernel type
3 # kernel parameter -d 
1 # kernel parameter -g 
1 # kernel parameter -s 
1 # kernel parameter -r 
empty# kernel parameter -u 
500 # highest feature index 
630 # number of training documents 
427 # number of support vectors plus 1 
1 # threshold b, each following line is a SV (starting with alpha*y)
-0.01 1:5.80299 2:9.7055521 3:0 4:2.7299242 5:4.0729427 6:7.7733173 7:0 8:4.4000444 9:0 10:0 11:10.489648 12:0 13:0 14:0 15:0 16:9.0503187 17:7.6274443 18:14.387988 19:4.3078518 20:0.96223921 21:11.766206 22:5.3915024 23:0 24:0 25:0 26:2.3567407 27:0 28:0 29:0 30:0 31:0 32:16.640663 33:0 34:18.071899 35:0 36:0 37:0 38:0 39:10.729321 40:0 41:9.5743179 42:3.4708149 43:13.671077 44:0 45:0 46:0 47:0 48:6.9720135 49:3.0389385 50:0 51:6.6386924 52:0 53:3.9786265 54:0 55:0 56:6.6821103 57:1.1260407 58:0 59:0 60:0 61:1.9088128 62:1.4830577 63:0.53546804 64:0 65:6.5758348 66:0 67:0.85827988 68:1.3618728 69:0 70:10.688924 71:0 72:0 73:0 74:0 75:0.087449916 76:0 77:0 78:0.043716408 79:3.2535958 80:0 81:0 82:0 83:0 84:0.92322153 85:0 86:14.431845 87:11.559269 88:0 89:3.8428044 90:0 91:0 92:0 93:10.610139 94:0 95:10.259068 96:0 97:0 98:8.4491062 99:0 100:10.119686 101:3.7339642 102:12.752408 103:4.6652412 104:0 105:0 106:12.84704 107:2.1699913 108:3.5366402 109:0 110:6.2851911 111:0 112:0 113:1.5842849 114:1.2039126 115:5.6557984 116:7.0562139 117:0 118:0 119:0 120:0 121:11.455947 122:21.332701 123:0.93646759 124:2.7871146 125:0.039097186 126:0 127:0 128:0 129:3.2463109 130:0 131:0 132:0 133:24.018909 134:15.802864 135:2.0831387 136:6.4428139 137:0 138:0 139:0 140:0.71338987 141:23.400415 142:0 143:0 144:0 145:0 146:12.168142 147:0 148:0 149:0 150:0 151:0 152:0 153:6.6252122 154:0 155:0 156:0 157:0 158:0 159:8.2403746 160:3.0390072 161:14.522623 162:8.5325584 163:8.6535378 164:0 165:1.921524 166:10.419026 167:0 168:0.51513577 169:0 170:13.976424 171:0 172:0 173:6.8244824 174:6.5388622 175:0 176:0 177:8.2746677 178:7.5516124 179:2.9868004 180:6.0988259 181:0 182:0.31765857 183:5.0945253 184:0 185:0.37836841 186:0 187:2.0754631 188:0 189:0 190:0 191:15.373145 192:11.511192 193:2.2757564 194:5.4608512 195:0.71618414 196:0.62781435 197:0 198:0 199:27.642862 200:0.2520636 201:8.1432877 202:7.4684286 203:7.660727 204:23.645973 205:0 206:8.640378 207:1.2598982 208:0 209:0.92116141 210:0 211:0 212:0.93932134 213:0.95167732 214:0 215:0 216:3.8226287 217:4.7128687 218:2.9258313 219:9.3627806 220:0 221:4.4029059 222:0 223:0 224:1.4231802 225:0 226:0 227:0 228:8.8492899 229:0 230:4.4896951 231:14.741328 232:0 233:0 234:0 235:0 236:18.357777 237:25.276045 238:0 239:0 240:0 241:12.882137 242:0 243:0 244:10.729043 245:0 246:0 247:0.11341817 248:0 249:4.0438399 250:0 251:10.250116 252:0 253:0 254:0 255:13.924781 256:0.5765456 257:0 258:0 259:0 260:0 261:0 262:12.175725 263:7.952549 264:16.745567 265:5.1146765 266:0 267:0 268:0 269:25.146284 270:0 271:0 272:0 273:0 274:0.25691065 275:9.3150263 276:7.527235 277:0 278:6.0999188 279:0 280:0 281:0 282:0.70642215 283:6.8824105 284:0.09526635 285:18.096481 286:16.131742 287:0 288:17.392675 289:11.506335 290:23.00592 291:16.134644 292:0 293:11.369106 294:4.2362885 295:0 296:5.1244402 297:8.192935 298:6.1738205 299:0 300:0 301:19.652597 302:0 303:0 304:0 305:4.1391449 306:0 307:0 308:9.1784191 309:0 310:0 311:0 312:6.696363 313:0 314:0 315:0 316:0 317:2.9175785 318:0 319:0.66344029 320:0 321:0 322:5.1763468 323:0 324:0 325:0 326:2.7035584 327:0 328:13.412835 329:4.3949523 330:0 331:0 332:0 333:0 334:0 335:0 336:0 337:3.9036422 338:2.5458844 339:0 340:0 341:0 342:5.4216738 343:0.40002415 344:0 345:8.6011381 346:0.96759015 347:22.196264 348:7.0188637 349:5.4142308 350:0 351:9.8446512 352:0 353:0 354:0 355:0 356:10.283992 357:13.605272 358:0 359:0 360:0 361:0.17813888 362:0 363:0 364:0 365:0 366:0 367:6.2090983 368:7.9509439 369:6.0395818 370:1.2416764 371:0 372:0 373:0 374:0 375:0 376:0 377:3.5829043 378:0 379:0 380:1.6100316 381:0 382:0 383:7.3903251 384:8.9697742 385:4.9756222 386:0 387:4.1242995 388:0 389:7.4203572 390:4.6171732 391:13.918258 392:0 393:0 394:8.8382416 395:7.1174893 396:0 397:2.0064735 398:0 399:0 400:0 401:0 402:0 403:7.24155 404:0 405:0 406:0 407:12.300241 408:0 409:0 410:0 411:0 412:0 413:6.1298127 414:4.0724158 415:4.4034142 416:18.261673 417:0 418:0 419:0 420:9.474102 421:17.415039 422:4.9413233 423:22.521004 424:1.7474385 425:6.2337403 426:0 427:8.8965225 428:0 429:0 430:0 431:9.3312473 432:0 433:16.701595 434:4.8075852 435:3.0106111 436:20.89678 437:0 438:0 439:2.2031755 440:1.693024 441:0 442:0 443:6.6461005 444:0 445:0 446:0 447:0 448:22.302532 449:6.504437 450:0 451:0 452:0 453:0 454:0 455:3.3021991 456:1.0186371 457:14.371017 458:9.971981 459:9.3106403 460:10.691549 461:0 462:0 463:7.1983614 464:0 465:5.7665267 466:3.9558876 467:0 468:0 469:0 470:0 471:0 472:0 473:0 474:0 475:0.44339219 476:7.1680746 477:6.7395773 478:2.1802738 479:8.622735 480:0 481:0 482:2.7738025 483:0 484:12.31797 485:14.678407 486:15.1347 487:2.1090283 488:0 489:8.5436935 490:3.3841364 491:15.715068 492:0 493:7.3710866 494:0 495:15.964377 496:22.866291 497:0 498:3.9268415 499:0 500:1.2208411 #
0.01 1:0 2:4.7258177 3:0 4:0 5:4.5418749 6:0 7:0 8:0 9:0 10:2.5429869 11:1.0178363 12:0 13:0 14:2.6464996 15:0 16:0 17:4.6691914 18:0 19:0 20:3.2132442 21:18.617376 22:0 23:7.1799903 24:3.0545733 25:4.9661303 26:0 27:11.622808 28:9.5035334 29:4.5766864 30:0 31:0 32:0 33:9.8819704 34:11.599422 35:0 36:0 37:0 38:0 39:0 40:0 41:0 42:10.092768 43:5.4252019 44:12.302871 45:0 46:0 47:6.3045444 48:6.3371859 49:0 50:0 51:2.1913888 52:0 53:0 54:0 55:0 56:0 57:13.110765 58:9.5719547 59:11.601171 60:0 61:10.202467 62:0 63:2.5494435 64:0 65:0 66:26.450794 67:0 68:0 69:0 70:0 71:3.1072636 72:9.6174135 73:1.9565288 74:0 75:12.259182 76:0 77:0 78:0 79:5.817883 80:4.4649563 81:6.9384522 82:5.3040261 83:0 84:1.5694107 85:5.6877098 86:2.4223738 87:0 88:0 89:12.515347 90:6.0366826 91:12.714973 92:1.1324116 93:1.2248747 94:21.898642 95:23.098906 96:7.9435406 97:0 98:1.0701457 99:0 100:6.2484527 101:0 102:0 103:19.049929 104:4.8108439 105:15.59568 106:0 107:5.4671383 108:0.79362959 109:2.2992787 110:0 111:2.4835024 112:12.290528 113:2.8917866 114:0 115:0 116:13.354492 117:0 118:0 119:0 120:0 121:7.0081568 122:0 123:10.930772 124:0 125:0 126:0 127:0 128:0 129:0 130:0 131:1.3465147 132:5.7482772 133:3.1758423 134:2.8661826 135:0 136:11.433056 137:3.0912054 138:0 139:8.7451315 140:0 141:2.2891338 142:6.3578243 143:7.1995773 144:4.280138 145:6.9950709 146:27.711317 147:0 148:17.671268 149:0 150:0 151:1.5508684 152:0 153:1.6964473 154:5.2292399 155:0 156:0 157:0 158:3.2015049 159:13.057446 160:6.1735749 161:0 162:12.953246 163:3.0868354 164:0.79463214 165:0 166:4.5287662 167:7.45748 168:1.2910515 169:0.025506273 170:0 171:12.861364 172:0 173:0 174:4.9404445 175:0 176:4.7143354 177:0 178:0 179:7.1855078 180:0 181:0 182:0 183:0.51436996 184:0 185:0 186:0 187:0 188:9.3617277 189:8.8109102 190:0.57635927 191:12.242262 192:3.2448597 193:9.4019442 194:7.3545136 195:6.7846546 196:0 197:6.2894473 198:10.126709 199:8.9987507 200:0 201:0 202:6.1472187 203:0.69466168 204:9.3176651 205:6.3556447 206:6.1712189 207:0 208:0 209:8.1785517 210:0 211:0 212:10.461354 213:0 214:0 215:4.4133186 216:0 217:5.3620667 218:5.549582 219:14.263348 220:0 221:0 222:0 223:14.316635 224:0 225:0 226:0 227:29.066072 228:12.363497 229:4.1429834 230:0 231:11.380887 232:15.517623 233:17.56867 234:3.5296288 235:0 236:1.6404338 237:0 238:0.41926453 239:15.195161 240:0 241:0 242:1.8825163 243:0 244:2.6601512 245:15.691637 246:0 247:0 248:10.384243 249:0 250:0 251:0 252:0 253:0 254:0 255:5.9660726 256:0 257:0 258:2.8295424 259:5.3289237 260:0 261:8.6202517 262:3.7767107 263:15.534949 264:0 265:0 266:7.2391472 267:0 268:2.0130365 269:0 270:3.1294203 271:10.66695 272:0 273:0 274:20.625101 275:15.324076 276:4.3243122 277:4.0192871 278:4.0815969 279:3.2677643 280:0 281:6.7015319 282:0 283:7.4062276 284:8.9318323 285:0 286:0 287:0 288:0 289:3.9691193 290:0 291:17.543541 292:11.117633 293:0 294:4.1254616 295:6.9007459 296:0 297:14.821345 298:11.675932 299:28.041901 300:0 301:0 302:9.0993328 303:0 304:0 305:0 306:3.7601895 307:11.177515 308:0 309:0 310:0 311:19.342249 312:4.6745014 313:3.1366024 314:0 315:2.0476232 316:11.762907 317:14.0543 318:7.5648665 319:0 320:0 321:10.61102 322:0 323:8.2537527 324:9.7833681 325:2.3972802 326:0 327:0 328:0 329:0 330:0 331:0 332:11.015336 333:25.012505 334:0 335:0 336:5.8459954 337:17.326181 338:18.645288 339:0 340:0 341:8.069706 342:4.5307541 343:0 344:3.3222232 345:3.2301266 346:0 347:0 348:0 349:8.708663 350:0 351:0 352:0.72022629 353:0 354:3.7138102 355:5.0745192 356:7.1541696 357:8.0463362 358:2.8024797 359:12.072218 360:0 361:1.7409141 362:0 363:0 364:0 365:0 366:0 367:0 368:10.692849 369:3.4085393 370:0 371:3.1549821 372:11.809035 373:0 374:6.1872373 375:2.6952128 376:0 377:1.1052953 378:0 379:0 380:6.8595648 381:0 382:6.1666756 383:2.9214218 384:0 385:0 386:4.3612428 387:0 388:0 389:12.089886 390:13.856579 391:6.7537274 392:1.2779952 393:0 394:0.21351948 395:0 396:0 397:0 398:6.4609413 399:4.2284794 400:6.7448702 401:9.7763433 402:0 403:0 404:5.7244434 405:19.152143 406:1.7863703 407:14.875751 408:3.9080017 409:0 410:0 411:8.6772757 412:0 413:0 414:10.133867 415:0 416:4.4908981 417:5.3303666 418:0 419:0 420:0 421:0 422:7.127254 423:7.8740945 424:5.939702 425:4.4991298 426:9.3219557 427:0 428:0 429:16.630337 430:0 431:7.7980661 432:0 433:12.710795 434:0 435:0 436:0 437:0 438:22.698631 439:0 440:12.77349 441:0 442:0 443:0.4317717 444:8.4065514 445:0 446:0 447:0 448:0 449:0 450:16.24194 451:0 452:0 453:12.55 454:7.0967832 455:0 456:10.70441 457:15.261274 458:10.170431 459:0.946419 460:7.7887959 461:5.1440363 462:15.821067 463:3.4824097 464:0 465:0 466:12.906161 467:11.35462 468:0 469:22.886583 470:0 471:10.829064 472:18.498734 473:13.459414 474:0 475:3.1338716 476:0 477:0 478:0 479:2.503546 480:0 481:0 482:0 483:0 484:6.5664616 485:0 486:0 487:13.920808 488:15.062355 489:9.1297379 490:0 491:0 492:0 493:0.4695518 494:0 495:0 496:0 497:0 498:3.6232829 499:0 500:4.790803 #
0.01 1:0 2:4.4684296 3:0 4:15.356996 5:8.8417683 6:0 7:12.476532 8:0 9:1.7329413 10:0 11:10.417022 12:0 13:9.7110891 14:0 15:9.6247702 16:0 17:0 18:0 19:0 20:0 21:0 22:0 23:10.01968 24:5.5850835 25:5.8313575 26:0 27:0 28:1.0617599 29:14.456868 30:4.5259504 31:0 32:3.9499607 33:3.227231 34:6.7613478 35:0 36:0 37:11.665349 38:0 39:11.505879 40:0 41:4.3928161 42:2.2736783 43:15.137372 44:5.8510141 45:0 46:0 47:17.104914 48:0.43484452 49:0 50:4.9871607 51:0 52:0 53:9.2230864 54:4.2903357 55:0 56:21.681053 57:11.384576 58:3.7242987 59:0 60:11.121774 61:0 62:3.4352386 63:3.8210254 64:14.243894 65:9.7209759 66:0 67:0 68:8.3131218 69:0 70:0 71:3.4304979 72:18.322659 73:6.491621 74:0 75:0 76:15.099901 77:0 78:12.481041 79:7.7446175 80:20.281456 81:0 82:26.591957 83:0.69960612 84:19.095478 85:1.2128235 86:0 87:0 88:0 89:7.322341 90:0 91:9.4135551 92:0 93:0 94:0 95:6.4644213 96:2.4728243 97:7.3307533 98:0 99:14.508777 100:0 101:0 102:16.605453 103:14.744903 104:0 105:0 106:0 107:24.23082 108:0 109:12.432504 110:12.625681 111:17.937172 112:13.255427 113:1.1730311 114:8.2557449 115:0 116:0 117:4.6716776 118:7.3010173 119:0 120:5.5459991 121:17.567327 122:10.618404 123:0 124:0 125:19.525045 126:0 127:11.56925 128:4.012126 129:15.990685 130:7.9606395 131:0 132:8.7619667 133:0 134:0 135:0 136:5.7266026 137:7.320612 138:16.164682 139:0 140:0.49054006 141:0 142:4.8424153 143:0 144:0 145:0 146:0.62393522 147:15.56934 148:6.6839967 149:4.604794 150:0 151:8.9833355 152:0 153:3.1853077 154:17.660376 155:0 156:0 157:26.063742 158:19.148718 159:6.6198764 160:3.3293507 161:0 162:0 163:0 164:0 165:0 166:0 167:6.2069373 168:13.312688 169:0 170:0 171:14.274295 172:1.7457942 173:0 174:5.7536669 175:3.0341141 176:0 177:0.7806837 178:0 179:0 180:17.301121 181:0 182:3.7180762 183:9.2016897 184:0 185:0 186:4.9640326 187:7.36971 188:0 189:0 190:0 191:0 192:0 193:0 194:1.7102034 195:0 196:0 197:5.3444853 198:10.092417 199:14.65299 200:2.9246376 201:0 202:5.8482723 203:0 204:0 205:0 206:0 207:15.045155 208:0 209:0 210:0 211:13.820659 212:0 213:8.1963129 214:0.046673786 215:1.2595797 216:21.127222 217:1.6504338 218:11.062835 219:6.7465277 220:3.9265704 221:0 222:9.1250582 223:1.3664601 224:13.928695 225:0 226:0.49099138 227:13.924156 228:0 229:0 230:2.0165386 231:5.6404915 232:0 233:17.49143 234:0 235:9.2779169 236:1.873414 237:0 238:9.6942072 239:12.178399 240:9.9087505 241:2.7934611 242:18.099888 243:0 244:0 245:5.9927988 246:7.912674 247:0 248:4.6663899 249:0 250:5.3878827 251:9.2390518 252:11.210544 253:3.5052047 254:0 255:0 256:19.625414 257:2.5781517 258:11.224914 259:0 260:3.8103962 261:0.63900495 262:13.668957 263:5.6039624 264:0 265:4.9433718 266:12.886606 267:0 268:5.500392 269:0 270:12.813506 271:14.944503 272:4.9499207 273:0 274:0 275:5.7261438 276:0 277:4.9027524 278:0 279:0 280:7.6099648 281:0 282:0 283:0 284:0 285:13.566918 286:0 287:0 288:0 289:8.7428598 290:8.3517065 291:5.6196032 292:11.423861 293:5.9210763 294:0 295:2.5222294 296:2.740025 297:20.767563 298:0 299:27.90629 300:0 301:0 302:13.47144 303:10.092371 304:0 305:16.65427 306:0 307:11.386715 308:14.604915 309:8.804863 310:0 311:14.232159 312:5.4483814 313:9.8900061 314:1.90522 315:15.939595 316:8.0583973 317:10.05479 318:0 319:12.098793 320:0 321:0 322:0 323:0.33838165 324:15.649919 325:0 326:1.6309618 327:1.3357338 328:0 329:3.8576984 330:0 331:6.1149735 332:8.8642435 333:0 334:0 335:0.46092668 336:6.4714918 337:0 338:19.589085 339:5.3114982 340:0 341:0 342:6.742352 343:0 344:0 345:0 346:1.106463 347:10.180859 348:0 349:4.10532 350:23.408787 351:21.078373 352:2.1955287 353:6.197525 354:11.372243 355:20.196198 356:0 357:6.574388 358:2.3344758 359:11.157793 360:0.93405437 361:0 362:4.9303908 363:0 364:0 365:0 366:8.7624254 367:7.8079367 368:12.894009 369:8.6400328 370:11.062968 371:4.0129972 372:2.2496674 373:0 374:0 375:3.0574751 376:0 377:2.4712651 378:3.6019244 379:0.70083153 380:0 381:0 382:0 383:3.5085919 384:0 385:9.265502 386:22.894165 387:0 388:0 389:0 390:0 391:0 392:3.5886705 393:0 394:21.662436 395:0 396:0 397:1.0795076 398:0 399:0 400:0 401:5.1839828 402:0 403:3.2504468 404:19.359461 405:1.2546762 406:1.6377304 407:12.509721 408:4.3213506 409:8.9967461 410:0 411:0 412:0 413:0 414:25.204744 415:1.063928 416:0 417:10.986897 418:0 419:0 420:0 421:9.149354 422:4.4243054 423:0 424:3.4584816 425:0.019702232 426:4.5409021 427:0 428:9.2864695 429:3.1889107 430:0 431:1.1751816 432:2.7247925 433:10.990488 434:8.16959 435:3.2928011 436:0.5818485 437:12.220523 438:0 439:0 440:0 441:0 442:0 443:0 444:0 445:0 446:0 447:0 448:20.294701 449:0 450:4.9751172 451:1.4287478 452:7.3411078 453:0 454:3.9610314 455:9.3332329 456:0 457:5.8144598 458:0 459:0 460:0 461:9.1610394 462:4.5571451 463:0 464:0 465:2.7607546 466:3.981293 467:2.3081698 468:0 469:7.036448 470:4.3151121 471:0 472:10.26499 473:3.6280606 474:2.2869501 475:0 476:0 477:0 478:1.7720908 479:11.85741 480:0 481:0 482:18.536512 483:0 484:1.7519623 485:0.85722697 486:3.4993799 487:18.960371 488:8.7985563 489:2.1699519 490:4.0794845 491:6.7728119 492:0 493:0 494:0 495:0 496:0 497:0 498:1.9990468 499:11.309419 500:0 #
-0.01 1:0 2:6.8002062 3:8.5188885 4:0 5:2.4286132 6:6.8605256 7:0 8:10.194304 9:0 10:13.483318 11:0 12:19.308508 13:0 14:0 15:9.3235426 16:0 17:0 18:14.377037 19:0 20:13.321866 21:5.0627775 22:2.602186 23:0 24:17.673645 25:0 26:0 27:0 28:8.1073875 29:5.5073628 30:0 31:2.909308 32:0 33:5.9986987 34:0.52620679 35:12.303776 36:0 37:0 38:0 39:0 40:0 41:9.4700804 42:5.3194785 43:0 44:17.074127 45:5.7511916 46:5.9188733 47:0 48:0 49:5.6010699 50:0 51:8.6278934 52:3.1737392 53:1.3526263 54:0 55:0 56:6.267241 57:4.5103207 58:0 59:0 60:0 61:0 62:6.7130389 63:14.735188 64:0 65:1.3773427 66:3.24897 67:1.9440179 68:0 69:0 70:7.5337539 71:14.17722 72:6.6488481 73:9.1136026 74:19.323469 75:0 76:0 77:0 78:0 79:6.0893712 80:0 81:0 82:15.701694 83:11.192967 84:0 85:0 86:12.316315 87:10.74544 88:0 89:0 90:5.3408241 91:14.570859 92:7.1185889 93:0 94:0 95:2.8389482 96:15.514049 97:0 98:9.5745888 99:0 100:13.949512 101:0 102:0 103:0 104:1.0509641 105:0 106:0 107:0 108:2.5338221 109:0.68623739 110:12.758617 111:0 112:8.2062912 113:0 114:0 115:15.037024 116:1.8065352 117:0 118:0 119:0.34116527 120:0 121:0 122:0 123:0 124:0 125:0 126:0 127:7.6658564 128:0 129:0 130:0 131:6.2063589 132:0 133:0 134:4.6144695 135:0 136:0.1496329 137:0 138:5.3112059 139:0 140:3.1767216 141:0 142:9.600956 143:8.0701685 144:2.1740987 145:10.835444 146:0 147:0 148:4.5567737 149:5.9702277 150:0.21836191 151:1.8237754 152:0.52640098 153:5.4464126 154:0 155:0 156:0 157:0 158:0 159:12.517749 160:6.0852084 161:0 162:0 163:0 164:0 165:5.5349755 166:15.427797 167:0 168:6.2339835 169:0 170:0 171:4.1080933 172:0.29374561 173:2.5978062 174:18.149187 175:1.1028844 176:0 177:7.9273424 178:3.6927712 179:0 180:4.7653885 181:0 182:0 183:0 184:0 185:9.5292177 186:0 187:0 188:0 189:0 190:0 191:0 192:0.096840918 193:0 194:4.2821393 195:7.9645028 196:8.8069201 197:5.7772098 198:2.2212811 199:20.922594 200:0 201:0 202:10.35514 203:0 204:0 205:23.009415 206:17.150167 207:12.161178 208:10.546906 209:0 210:3.844028 211:0 212:14.555608 213:13.297509 214:0 215:0 216:12.279676 217:0 218:12.483146 219:4.8523355 220:0 221:10.470033 222:15.995274 223:9.4373455 224:7.5614619 225:2.6836956 226:3.742703 227:0 228:0 229:6.4569464 230:0 231:12.374523 232:0 233:0 234:6.311089 235:0 236:12.893907 237:0 238:7.6955686 239:0 240:5.0637803 241:12.019327 242:12.333144 243:0 244:6.3453083 245:7.9532986 246:5.8996234 247:10.246446 248:0 249:7.5160866 250:0 251:0 252:0 253:4.0423827 254:0 255:1.4468949 256:2.6347394 257:7.2749038 258:0 259:16.558788 260:0 261:9.1053438 262:0 263:5.1281815 264:0 265:0 266:9.4314356 267:0 268:0 269:21.407557 270:0 271:2.4264996 272:0 273:0 274:0.19212393 275:0 276:0 277:0 278:0 279:1.3733082 280:3.3266613 281:0 282:0 283:14.293407 284:6.321249 285:4.4231448 286:0 287:2.3836718 288:0.37693068 289:12.662645 290:0 291:8.0626421 292:0 293:0 294:0 295:0 296:0 297:13.49241 298:3.6782129 299:0 300:8.9503822 301:12.610654 302:0 303:11.628586 304:15.686307 305:5.9922066 306:0 307:15.136652 308:0 309:0 310:0 311:0 312:1.5271498 313:6.7518487 314:0 315:0 316:1.0610574 317:0 318:0 319:0.11003594 320:0 321:0 322:5.9714723 323:0 324:0 325:8.9606113 326:0 327:13.13002 328:11.008014 329:0 330:9.0554724 331:0.14797263 332:0 333:4.6694751 334:0 335:0 336:0 337:5.5371819 338:5.7211337 339:0 340:0 341:10.303051 342:14.475295 343:0 344:0.098374173 345:9.8961153 346:13.308882 347:0 348:0 349:0 350:0 351:0 352:0 353:0 354:0 355:18.284002 356:1.1787747 357:0 358:26.332899 359:0 360:0 361:0 362:1.9894668 363:0 364:0 365:4.808557 366:0 367:6.94768 368:0 369:0 370:0.84574175 371:2.0727706 372:0 373:11.808348 374:2.5397191 375:3.6545615 376:1.786644 377:11.528941 378:15.559662 379:0 380:0 381:4.5771265 382:0 383:0.76698232 384:0.72139895 385:19.122925 386:0 387:2.234674 388:0 389:1.1055229 390:0 391:0 392:0 393:2.2673817 394:4.4932952 395:0 396:2.0723889 397:16.966686 398:11.815197 399:5.2355976 400:6.2960806 401:0 402:3.4370427 403:0 404:0 405:28.624231 406:0 407:4.3144512 408:17.875238 409:0 410:2.0599637 411:0 412:0 413:5.2517247 414:2.9966307 415:12.771133 416:19.287241 417:2.845912 418:3.419034 419:0.1229393 420:0 421:11.831354 422:0 423:0 424:11.284653 425:8.9121485 426:0 427:5.2176881 428:0 429:0 430:0 431:3.619097 432:0 433:0 434:0 435:0 436:4.0525928 437:3.6998022 438:0 439:0.47518867 440:0 441:0 442:0 443:8.246664 444:0 445:4.0287499 446:5.8679175 447:2.2743926 448:2.8586128 449:15.336946 450:0 451:41.672665 452:0 453:0 454:6.6878047 455:10.244606 456:0 457:0 458:0 459:0 460:0 461:0 462:6.6728883 463:0.4217957 464:5.7974882 465:5.4610143 466:6.1379104 467:4.9662123 468:0 469:5.9057164 470:12.709133 471:0 472:11.77372 473:0 474:11.343849 475:0 476:2.6906238 477:0 478:22.007322 479:1.1948603 480:8.8219528 481:8.4682217 482:0 483:2.8633454 484:14.914739 485:0 486:0 487:0 488:0 489:0 490:7.123683 491:0 492:0 493:0 494:0 495:0.66983902 496:0 497:0 498:10.455251 499:0 500:0 #
0.01 1:0 2:0 3:4.8737521 4:9.4957523 5:3.9260793 6:0 7:12.380236 8:4.3474259 9:0 10:19.961918 11:0 12:0 13:1.880499 14:14.113431 15:5.128489 16:2.8785956 17:0 18:9.4033642 19:0 20:0 21:1.5272219 22:0 23:22.273808 24:7.5210438 25:0 26:2.7953923 27:6.8528624 28:1.7785431 29:2.5387211 30:0 31:3.9722753 32:0 33:0 34:8.9787092 35:0 36:0 37:12.238164 38:22.82839 39:0 40:0 41:0 42:0.31743026 43:10.722896 44:8.5835962 45:0 46:0 47:3.7641168 48:3.6500936 49:0 50:4.2016969 51:3.6776781 52:0 53:2.9247422 54:17.203438 55:0 56:0 57:18.42222 58:0 59:6.6869798 60:1.8590232 61:5.1833758 62:0 63:11.971019 64:17.433075 65:0.91754431 66:0 67:0 68:2.1109428 69:2.685955 70:0 71:6.1050682 72:13.654595 73:0 74:0 75:0 76:1.5611999 77:0 78:0 79:2.308955 80:0 81:9.4864292 82:19.263887 83:0 84:0 85:7.0158191 86:13.483294 87:0.95285398 88:0 89:0 90:0 91:8.0904646 92:1.2103057 93:7.9237938 94:13.247014 95:12.574082 96:4.6422153 97:2.5092485 98:7.1191263 99:0 100:1.5335482 101:2.7137969 102:5.6213498 103:0 104:0 105:0 106:14.101896 107:11.234869 108:7.6905627 109:0 110:3.173665 111:14.047033 112:0 113:10.601821 114:0 115:4.1901064 116:3.9159031 117:0 118:0 119:4.9139419 120:7.5508084 121:10.028743 122:4.7475038 123:0 124:0 125:0 126:11.912521 127:0 128:0 129:0 130:0 131:0 132:0 133:14.103884 134:2.7432959 135:5.7609382 136:7.1152492 137:0 138:14.976183 139:8.2965336 140:0 141:0 142:30.564648 143:3.5417411 144:0 145:0 146:16.606693 147:0 148:0 149:16.518318 150:0 151:0 152:0 153:2.0291128 154:0 155:0 156:0 157:0 158:1.2515402 159:2.508868 160:6.9103613 161:5.7006121 162:2.3811071 163:0 164:0 165:2.9334819 166:9.4120102 167:0 168:0 169:0 170:0 171:6.2143044 172:0 173:0 174:0 175:24.014919 176:2.9008334 177:0 178:0 179:5.7745962 180:11.180259 181:8.176506 182:0 183:0.27117231 184:0 185:7.788445 186:8.0301428 187:6.906292 188:0 189:0 190:4.9780388 191:3.3946347 192:7.0817394 193:14.941232 194:5.7417984 195:0 196:17.945889 197:2.9372509 198:5.5632315 199:4.0704727 200:6.4933558 201:14.478748 202:0.10969283 203:0.19221644 204:15.296923 205:2.3372264 206:11.826586 207:8.672348 208:1.745077 209:10.835629 210:9.2512236 211:0.40729183 212:16.255785 213:6.1345992 214:0 215:9.4555836 216:11.304161 217:0 218:0 219:0 220:10.066323 221:4.3338742 222:0 223:5.2766943 224:1.7953976 225:1.9548413 226:0 227:7.751194 228:0 229:9.6508808 230:5.633925 231:0 232:6.8669724 233:0 234:0.3360852 235:0 236:0 237:6.5275412 238:0 239:15.266484 240:2.4130208 241:0 242:0 243:0 244:0 245:0 246:0 247:0 248:0 249:1.3275186 250:0 251:3.5812864 252:0 253:0 254:7.0473833 255:0 256:1.7451055 257:3.0410948 258:0 259:0 260:0 261:0 262:20.419312 263:0 264:0 265:3.0175583 266:0 267:0 268:0 269:11.469054 270:10.998558 271:0 272:0 273:0 274:10.220404 275:0 276:0 277:0 278:15.09026 279:2.7502785 280:8.4496059 281:4.3388948 282:0 283:0 284:0 285:0 286:4.6278753 287:20.997631 288:6.7788143 289:0 290:0 291:0 292:0 293:6.7118249 294:8.6753922 295:0 296:7.4202442 297:13.742394 298:5.9210968 299:0 300:19.07802 301:15.468728 302:0 303:0 304:14.24751 305:0 306:0 307:0 308:0.54898447 309:0 310:0 311:2.1795449 312:14.420737 313:0 314:0 315:6.7850733 316:0 317:0 318:0.5423159 319:0 320:0 321:0 322:19.338699 323:0 324:12.765924 325:7.4018388 326:18.173077 327:10.06416 328:0 329:5.5194831 330:18.832323 331:6.0142283 332:0 333:0.94261301 334:17.096874 335:0 336:0 337:1.3751104 338:0.28215584 339:0 340:0 341:1.381429 342:26.940363 343:0 344:0 345:4.0564251 346:12.353043 347:6.8651862 348:7.4422622 349:13.384697 350:19.917364 351:19.625252 352:4.0499787 353:16.386679 354:0 355:9.333149 356:0 357:0 358:0 359:1.963096 360:0 361:0 362:10.701385 363:0 364:10.003969 365:0 366:0 367:27.121687 368:0 369:0.91554266 370:0 371:0.31529728 372:13.679907 373:7.6311207 374:0 375:0 376:4.6228991 377:18.356773 378:24.009306 379:5.5702209 380:0 381:0 382:0 383:0 384:0 385:0 386:0 387:0 388:0 389:0 390:20.365713 391:8.7093143 392:0 393:13.264995 394:0 395:8.8009367 396:11.562498 397:0 398:2.7974432 399:14.741001 400:0 401:5.4321098 402:0 403:18.971003 404:0 405:0 406:0.27594 407:0.50039995 408:9.3214979 409:2.8197281 410:12.314847 411:2.7570231 412:0 413:10.368696 414:7.4113975 415:3.3072209 416:0 417:0 418:0 419:0 420:3.7612851 421:7.6494689 422:0 423:0 424:8.0721292 425:0 426:1.8678329 427:4.0213404 428:1.7617863 429:0 430:4.1226468 431:4.0100894 432:0 433:0 434:8.1043863 435:0 436:0 437:0 438:0 439:8.6487551 440:0 441:0.26000357 442:11.655154 443:0 444:4.562573 445:17.427347 446:10.28288 447:2.4675069 448:0 449:3.6529436 450:0 451:13.388889 452:0 453:14.832398 454:0 455:1.4069847 456:10.655118 457:0 458:0 459:2.2688832 460:2.4631181 461:2.3636122 462:0 463:9.6262207 464:0 465:0 466:0 467:10.750336 468:0 469:0 470:0 471:0 472:0 473:0 474:5.1006937 475:0 476:0 477:0 478:0 479:0.37772873 480:8.122529 481:9.1165314 482:2.3466105 483:0 484:0 485:0 486:0 487:0 488:0 489:16.043682 490:7.063273 491:5.6946592 492:0 493:1.363292 494:0 495:0 496:0 497:0 498:0 499:18.09572 500:3.4436536 #
-0.01 1:4.8524342 2:0 3:0 4:0 5:0 6:3.9057746 7:14.972821 8:17.221825 9:0 10:0 11:9.8158073 12:0 13:5.7912312 14:6.2605038 15:0.79327154 16:9.656786 17:0 18:0 19:0.53970546 20:16.338211 21:0 22:0 23:6.2986526 24:17.802977 25:0 26:3.2853961 27:6.7318683 28:10.063347 29:4.7727675 30:0 31:3.705617 32:0 33:0 34:0 35:0 36:11.547655 37:0 38:0 39:0 40:1.8425318 41:13.372222 42:0 43:0 44:12.45297 45:0 46:0 47:1.2571628 48:0 49:0 50:0 51:3.208014 52:0 53:19.336548 54:0.75268281 55:1.1224512 56:0 57:15.570349 58:0 59:14.756054 60:0 61:0.030600032 62:0 63:4.4943552 64:0 65:0 66:16.352283 67:0 68:0 69:0 70:0 71:0 72:5.0291109 73:9.1179686 74:0 75:3.0274 76:0.23748633 77:0.92412949 78:21.937801 79:6.9782405 80:2.587775 81:3.3781526 82:0 83:1.8618222 84:0 85:5.9711642 86:9.9840918 87:18.058121 88:6.790936 89:9.7533045 90:15.232374 91:0 92:12.477191 93:23.563078 94:13.320374 95:0 96:0 97:2.4636865 98:21.257061 99:0 100:5.137188 101:0 102:0 103:4.3900485 104:0 105:0.50320303 106:1.52731 107:0 108:0 109:1.3431025 110:5.018106 111:28.377943 112:0 113:5.1899166 114:0 115:0 116:4.6852379 117:0 118:0 119:0 120:13.273172 121:0 122:6.38061 123:2.5319035 124:3.1016622 125:0 126:0 127:0 128:12.402299 129:11.19713 130:0.024876442 131:0 132:0 133:0.78958219 134:0 135:0 136:8.8966742 137:5.3830032 138:9.7000179 139:2.3811316 140:0 141:6.107378 142:0 143:0 144:0 145:0 146:0 147:0 148:0 149:0 150:0 151:0 152:0 153:31.486315 154:0 155:0 156:0 157:6.4615121 158:2.8784025 159:4.4283257 160:0 161:19.518896 162:0 163:0 164:0 165:0 166:0 167:7.2836704 168:0.27618536 169:0 170:2.6645961 171:0 172:0 173:6.0032487 174:0 175:11.477522 176:0 177:28.882601 178:1.1163814 179:3.2673261 180:14.351996 181:6.9265299 182:17.98317 183:4.0685897 184:23.676851 185:0 186:15.046787 187:14.304006 188:2.0538652 189:10.031004 190:5.3865132 191:0 192:2.6258302 193:13.917071 194:0 195:0.24238262 196:4.2530694 197:14.19532 198:1.8531883 199:0 200:0 201:0.072209395 202:0 203:0 204:0 205:2.6419837 206:0 207:4.021976 208:0 209:0 210:0 211:7.8818541 212:0 213:4.3301129 214:0 215:4.8063412 216:15.204948 217:10.662342 218:0 219:4.3129821 220:4.3106403 221:0 222:0.7160241 223:11.498796 224:0 225:0 226:0 227:0 228:0 229:0 230:0 231:0 232:0 233:11.436427 234:0 235:0 236:0 237:14.020275 238:0 239:4.1528482 240:0 241:1.8430632 242:8.3960619 243:14.007315 244:2.6938593 245:23.75835 246:6.1899734 247:0 248:0.26771 249:0 250:0 251:0 252:0 253:2.4148314 254:0 255:0.87112403 256:1.4903896 257:0 258:0 259:12.202413 260:0.63436627 261:0 262:0 263:15.544115 264:15.487251 265:0 266:0 267:4.828517 268:4.5183363 269:1.5504776 270:0 271:1.7250972 272:0 273:0 274:12.390213 275:2.7410223 276:3.0396228 277:0 278:0.62094206 279:7.5617886 280:0 281:0 282:1.294101 283:10.124843 284:0 285:1.3679949 286:1.7945346 287:3.712713 288:5.9453282 289:0 290:4.4897537 291:0.66015947 292:9.7048655 293:0 294:17.336317 295:0 296:0 297:0 298:13.940684 299:4.9662061 300:0 301:0 302:0 303:0.6127013 304:0 305:0 306:0 307:2.6188843 308:0 309:1.8339725 310:0 311:0.59537017 312:0 313:0 314:10.149357 315:5.8834372 316:8.9336634 317:6.0820222 318:0 319:10.083327 320:0.16164127 321:0 322:3.9695227 323:0 324:12.121246 325:0 326:16.648441 327:5.8351231 328:1.7688342 329:0 330:5.6769257 331:0 332:0 333:6.9750681 334:4.1146159 335:0 336:0 337:0 338:15.830164 339:0 340:0 341:0 342:18.090252 343:2.1443861 344:4.8898573 345:5.8812518 346:0 347:0 348:13.481275 349:8.1370029 350:0 351:12.391554 352:10.242082 353:0 354:0 355:10.433942 356:4.2438474 357:2.3337817 358:0 359:2.0723007 360:0 361:0 362:0 363:0 364:0 365:0 366:0 367:0.77895463 368:0 369:0 370:0 371:0 372:0 373:2.1951408 374:3.5081828 375:8.4745779 376:1.0638343 377:0.21931545 378:5.8444695 379:0.21654585 380:0 381:0 382:1.6627643 383:7.0318255 384:0 385:1.684009 386:0.71917391 387:0 388:0 389:0 390:0 391:5.782721 392:4.524756 393:0 394:3.298105 395:0 396:3.9958632 397:0 398:7.9306512 399:11.28891 400:0 401:0 402:11.764224 403:0 404:0 405:0 406:0 407:0 408:0 409:1.3453957 410:13.372684 411:0 412:2.1760523 413:0 414:1.2597027 415:11.921036 416:0 417:0 418:0 419:23.230221 420:0 421:21.420494 422:0 423:0 424:1.3825997 425:5.3096776 426:0 427:5.7754765 428:12.37853 429:0 430:5.5606046 431:3.6540003 432:0 433:0 434:0 435:20.246019 436:0 437:3.212986 438:23.644911 439:6.3693032 440:0 441:0 442:5.6907735 443:5.3999801 444:8.8296757 445:4.4830728 446:7.7420964 447:8.6921482 448:5.4582982 449:0 450:12.723108 451:0 452:5.3519115 453:0 454:2.1764657 455:6.9791546 456:0 457:4.7396417 458:0 459:5.8375592 460:2.8385959 461:11.254762 462:0 463:3.6358545 464:0 465:1.2094053 466:5.4178686 467:0 468:0 469:0 470:0 471:2.4721673 472:14.724106 473:11.703706 474:1.5243825 475:10.260008 476:2.0164957 477:0 478:8.253624 479:0 480:0 481:3.3485842 482:0 483:0 484:0 485:5.3590288 486:0 487:0 488:4.8761353 489:3.0719059 490:3.478292 491:0 492:0 493:2.0712197 494:0 495:0 496:0 497:4.3428988 498:0 499:0 500:0 #
0.01 1:12.470461 2:0 3:9.1404552 4:1.7039237 5:3.6893613 6:0.182897 7:9.3028688 8:0 9:8.783823 10:0 11:3.2061355 12:3.8814013 13:0 14:0 15:0 16:5.3733554 17:4.3945689 18:1.1049256 19:2.9235816 20:0 21:0 22:0.82496661 23:8.4329948 24:0 25:0 26:21.225609 27:23.469311 28:0 29:0 30:5.8812723 31:2.9511101 32:0 33:1.5309404 34:12.699714 35:0 36:1.8852209 37:12.906404 38:0 39:0 40:0.56608814 41:0 42:8.9652233 43:7.0122271 44:10.337717 45:0 46:0 47:3.4835129 48:0 49:5.341361 50:0 51:2.2533202 52:0 53:12.975548 54:5.0617619 55:0 56:3.220629 57:0 58:0 59:12.490726 60:7.2228565 61:0 62:10.069094 63:0 64:8.8385859 65:0 66:4.9371462 67:0 68:0.76823938 69:0 70:0 71:0 72:0.0088575967 73:0 74:0 75:0 76:9.477232 77:1.9197254 78:0 79:8.7950706 80:1.0649 81:0 82:13.110214 83:4.3015871 84:14.625955 85:0.97771436 86:0 87:0 88:0.88516492 89:0 90:0 91:3.0702186 92:1.2394588 93:0 94:15.354108 95:3.6796429 96:9.016799 97:0 98:0 99:0 100:18.681963 101:15.193133 102:0 103:0 104:9.2457428 105:0 106:4.2551093 107:3.5076306 108:2.3532026 109:0 110:0 111:5.3127828 112:9.203392 113:10.827702 114:8.9469566 115:0 116:0 117:24.251038 118:7.9061551 119:7.8932981 120:6.3933997 121:24.806168 122:0 123:0 124:15.633804 125:1.9849361 126:0 127:0 128:12.673267 129:0 130:7.5286279 131:0 132:0 133:0 134:0 135:0 136:20.674906 137:3.0865984 138:2.2476621 139:2.5090218 140:0.13243255 141:0 142:18.519224 143:1.643527 144:1.8333062 145:0 146:0 147:6.370317 148:15.996105 149:5.0467701 150:0 151:0 152:6.0414486 153:0 154:0.63519478 155:12.614767 156:6.1966963 157:10.268432 158:0 159:1.2738799 160:1.1660563 161:0 162:4.0960612 163:0 164:1.2358581 165:0.84921283 166:0 167:11.447182 168:9.8246756 169:0 170:3.0639966 171:0 172:3.3918424 173:0.022462761 174:0 175:8.4552784 176:5.8631277 177:0 178:21.001467 179:11.64438 180:0 181:0 182:10.24363 183:7.012176 184:0.60679936 185:11.369032 186:1.2656226 187:0 188:0 189:7.5087786 190:0 191:9.1973896 192:3.1967535 193:0 194:1.3937817 195:0 196:0.51788819 197:0 198:3.1647179 199:2.6852767 200:0 201:0.40953007 202:0 203:15.471193 204:19.648087 205:0 206:0 207:0.85564339 208:0 209:0 210:3.8233461 211:0.81411415 212:11.571534 213:4.0590148 214:0 215:0 216:0 217:2.7990651 218:0 219:0 220:4.848177 221:0 222:0 223:15.545269 224:0.21789658 225:4.9232588 226:4.1317792 227:16.711637 228:1.5079981 229:0 230:0 231:18.168276 232:4.9176011 233:11.198265 234:12.523746 235:0 236:5.2450633 237:15.390923 238:9.5344858 239:0 240:9.944747 241:0 242:4.3744659 243:4.0818124 244:0 245:0 246:1.1064481 247:4.2179909 248:0.22496957 249:3.743154 250:0 251:0 252:0 253:0 254:6.7523131 255:0 256:0 257:4.2679181 258:1.7194169 259:3.5300612 260:0 261:5.5576458 262:11.493937 263:3.3944471 264:0 265:7.5156312 266:0 267:0 268:12.009917 269:8.8655186 270:0 271:0 272:8.665123 273:0 274:0 275:14.558998 276:0 277:10.549274 278:15.792971 279:0 280:0 281:0 282:0 283:3.4193392 284:21.953484 285:0 286:0 287:0 288:7.3125539 289:2.8068252 290:1.0012125 291:0 292:17.574694 293:10.501955 294:7.7504954 295:0 296:0 297:0 298:1.3733219 299:3.5201323 300:0 301:2.23576 302:0 303:0 304:10.0363 305:0 306:0 307:0 308:0 309:14.118175 310:0 311:3.7644086 312:0 313:0 314:0 315:0 316:7.4220676 317:7.895504 318:2.6815434 319:1.6181169 320:0 321:9.3339214 322:0 323:10.006078 324:5.3205972 325:1.4629591 326:0 327:10.960462 328:0 329:14.798236 330:2.0152197 331:0 332:0 333:3.2328854 334:6.3551745 335:4.299788 336:0 337:0.48756123 338:0.69531626 339:2.5289288 340:12.878173 341:0 342:0 343:12.381493 344:15.84978 345:0.64898503 346:0 347:0 348:0 349:0 350:0.19564646 351:0.89661312 352:0 353:2.5346277 354:4.3308372 355:0 356:0 357:0 358:17.344959 359:0 360:4.9625211 361:0 362:0 363:10.563171 364:2.0296035 365:7.8639832 366:2.5144675 367:7.2870183 368:13.095325 369:14.059938 370:10.201751 371:6.0891609 372:9.2261877 373:0 374:0 375:0 376:5.611136 377:13.903032 378:15.568358 379:1.1125244 380:0 381:5.2760181 382:0 383:0 384:0 385:18.316755 386:0 387:0.91846102 388:0 389:0 390:0 391:0 392:10.86803 393:0 394:0 395:0 396:0 397:9.5760288 398:8.6933088 399:8.8415337 400:0 401:6.9908071 402:0 403:19.608738 404:7.2578306 405:0 406:0 407:6.0177445 408:12.491214 409:0 410:0 411:0.22499567 412:0 413:14.160638 414:4.1186166 415:4.9761305 416:0 417:2.4196715 418:7.438571 419:0 420:0 421:0 422:7.4847403 423:0 424:4.3159518 425:0 426:0 427:9.7091761 428:0 429:0 430:0 431:0.21794441 432:0 433:8.7450581 434:0 435:0 436:4.9283705 437:0 438:0 439:0 440:0 441:1.5279065 442:0 443:0 444:1.8753617 445:6.2319498 446:0 447:0 448:0 449:16.891899 450:0 451:0 452:0 453:7.0680003 454:0 455:0 456:11.948188 457:1.6642287 458:14.099245 459:0 460:3.754518 461:0 462:3.148464 463:2.4673064 464:7.1001735 465:0 466:0 467:0 468:5.3555613 469:0 470:0 471:10.329654 472:0 473:0 474:0 475:6.9119906 476:0 477:0 478:17.333202 479:14.333672 480:1.8374932 481:0 482:1.4169765 483:0 484:19.931877 485:0 486:0 487:12.201073 488:0.19447711 489:0 490:0 491:0 492:0 493:4.6676617 494:0 495:0 496:0 497:5.383266 498:7.1768556 499:0 500:15.831079 #
-0.01 1:0 2:4.3108883 3:0 4:0 5:0 6:0 7:0.81460339 8:6.151082 9:0 10:0 11:5.6168599 12:22.533104 13:0 14:0 15:7.3472824 16:16.66176 17:0 18:3.4269614 19:0 20:0 21:18.757944 22:0 23:13.516228 24:0 25:0 26:6.4026494 27:0 28:0 29:8.541791 30:0 31:1.720341 32:0 33:20.301388 34:0 35:0 36:6.6864195 37:0.90033472 38:10.446533 39:0 40:0 41:1.5317085 42:0 43:0 44:0 45:0 46:5.8453856 47:0 48:2.5232985 49:0 50:5.3072481 51:11.447734 52:1.8239589 53:0 54:0.48645708 55:2.9317224 56:3.6283841 57:0 58:0 59:0 60:9.6048069 61:0 62:13.596327 63:0 64:3.3914073 65:0 66:0 67:0 68:25.508215 69:17.069572 70:0.24050896 71:0 72:0 73:4.9381857 74:0 75:0 76:0 77:0 78:0 79:9.0117216 80:0 81:0.26726565 82:1.5915227 83:0 84:16.783512 85:0 86:3.2086425 87:0 88:4.9949713 89:0 90:0 91:16.987768 92:16.298334 93:0 94:5.8480439 95:0 96:11.638245 97:1.6005957 98:0 99:1.9741588 100:0 101:1.5670692 102:4.8651962 103:0 104:2.9826648 105:0 106:6.5516224 107:0 108:0 109:2.8972199 110:0 111:11.014064 112:0 113:0 114:1.5200813 115:21.730888 116:0 117:0 118:5.5734034 119:0 120:10.15553 121:8.3498487 122:0 123:0 124:0 125:4.0339293 126:0.56646711 127:0 128:0 129:0.75690407 130:23.325594 131:0 132:14.175536 133:0 134:10.737829 135:5.9537816 136:21.170248 137:0 138:0 139:0 140:4.4509664 141:5.5027962 142:0 143:15.316317 144:2.4229448 145:1.9328891 146:0.525783 147:7.4288096 148:0 149:0 150:0.32135251 151:0 152:0 153:11.404765 154:0 155:2.1529837 156:1.3548876 157:0 158:0 159:14.071144 160:0 161:19.03187 162:0 163:3.1685393 164:0 165:1.3031886 166:0 167:0.60109395 168:0 169:0 170:8.3010149 171:0 172:0 173:0 174:10.622416 175:23.612068 176:15.915712 177:7.0932498 178:0 179:7.3747253 180:0 181:0 182:4.3428531 183:7.1221452 184:0 185:0 186:0 187:0 188:0 189:6.3582039 190:0 191:0 192:10.620791 193:4.4268026 194:1.6533489 195:10.162171 196:0 197:17.794554 198:0.56790727 199:0 200:2.6256108 201:0 202:0 203:6.5547886 204:0 205:0.37779877 206:7.9410086 207:0 208:1.2310765 209:0 210:25.361471 211:12.864557 212:11.548065 213:3.6758068 214:0 215:0 216:0 217:27.12623 218:0 219:0 220:0 221:0 222:0.1973915 223:0 224:0 225:3.2291255 226:5.7930641 227:4.772747 228:0 229:0 230:0.8186084 231:0 232:0 233:0 234:10.607426 235:5.3486609 236:4.0471373 237:9.186408 238:0 239:19.408749 240:0 241:6.841466 242:1.9731816 243:0 244:6.7990818 245:1.2108744 246:3.6708012 247:0 248:5.2270565 249:0 250:0 251:0 252:0 253:11.994501 254:6.5271511 255:0 256:1.6379879 257:19.1208 258:4.1170797 259:0 260:5.6257806 261:0 262:4.569829 263:0.97629386 264:7.351119 265:0 266:0 267:0 268:4.3780227 269:21.075232 270:0 271:8.7796478 272:0 273:0 274:6.0300221 275:8.9317741 276:0.26359278 277:12.882909 278:0 279:0 280:3.3978598 281:0 282:0 283:0 284:0 285:9.4850903 286:0 287:0 288:5.0135965 289:0 290:0 291:0 292:16.255537 293:0 294:0 295:0 296:0 297:3.4692209 298:0 299:10.629687 300:16.912592 301:0 302:11.789804 303:0 304:10.464281 305:0 306:0 307:0 308:4.5831275 309:12.374259 310:0 311:9.6135073 312:9.1661367 313:7.2273507 314:17.02412 315:0 316:22.126999 317:0 318:0 319:0 320:18.574574 321:0 322:0 323:0 324:0 325:12.863887 326:8.3358231 327:0 328:17.616541 329:0 330:23.281227 331:0 332:11.230685 333:0 334:0.23643608 335:7.6565533 336:7.7576919 337:1.0926874 338:0 339:15.377449 340:1.3339745 341:3.9399455 342:16.042034 343:7.5215487 344:15.718612 345:0 346:19.701452 347:0 348:0 349:0 350:2.1505382 351:0 352:6.7808537 353:0 354:5.8682771 355:2.804003 356:0 357:14.550368 358:0 359:0 360:0 361:7.500927 362:12.091254 363:0 364:3.5492365 365:14.968053 366:0 367:0 368:1.4520296 369:7.8740711 370:17.341127 371:0.024611834 372:0 373:0 374:0 375:0 376:4.3051219 377:4.6178164 378:5.7807741 379:0 380:3.3779719 381:12.407585 382:3.5774829 383:1.2045277 384:0 385:0 386:9.0870142 387:0 388:0 389:11.215532 390:7.8218842 391:18.067619 392:0 393:0 394:0 395:0 396:5.9042768 397:0.82353371 398:0 399:4.8196912 400:2.9677317 401:0 402:26.882786 403:2.4066746 404:0 405:2.8674591 406:17.527052 407:0 408:0 409:0 410:18.384966 411:0 412:0 413:0 414:0 415:0 416:8.6381464 417:2.1651452 418:0 419:0 420:12.933756 421:0.6837433 422:0 423:3.9371974 424:0 425:8.2162361 426:20.002253 427:7.963675 428:7.1036015 429:7.710391 430:0 431:7.683692 432:9.5833349 433:0 434:0 435:0.011102419 436:0.31392121 437:1.1577405 438:0.89325839 439:6.4468703 440:0.65805489 441:0 442:0.10079988 443:0 444:0 445:5.3662438 446:0 447:5.5070143 448:3.5385153 449:11.89625 450:0.13797177 451:17.007315 452:6.8356647 453:0 454:0 455:12.194464 456:0 457:0 458:0 459:2.9786367 460:0 461:0 462:0 463:4.5305052 464:0 465:0 466:0 467:0 468:0 469:4.6647253 470:0 471:0 472:12.742549 473:6.377933 474:6.2257562 475:7.1608257 476:0 477:6.2384086 478:10.658544 479:8.2862597 480:12.135116 481:0 482:0.90485036 483:3.1745462 484:0 485:2.0162585 486:0 487:0 488:17.068087 489:13.323523 490:0 491:0 492:11.450623 493:0 494:0 495:0 496:6.9705305 497:0 498:0 499:5.7943916 500:0 #
0.01 1:8.5262775 2:2.8975854 3:8.2207623 4:0 5:5.4134541 6:8.8446131 7:12.983646 8:1.6615313 9:0 10:5.9130182 11:0 12:11.123208 13:19.043388 14:0 15:0 16:0.32143795 17:0 18:13.4765 19:4.9150896 20:9.3380756 21:10.030133 22:0.03612493 23:0 24:1.3647515 25:0 26:13.389882 27:0 28:15.125273 29:0 30:0.032828953 31:0 32:13.675941 33:10.106646 34:8.3946657 35:0 36:7.7777591 37:2.3677857 38:0 39:9.0109215 40:7.4382858 41:12.591119 42:0 43:0 44:0 45:2.0101016 46:0.33503166 47:5.7917399 48:1.6058118 49:2.2866938 50:0 51:0 52:18.194866 53:9.6218872 54:14.482663 55:0 56:0 57:4.7154474 58:12.146118 59:0 60:0 61:0 62:0 63:13.876509 64:0 65:0 66:6.9465766 67:0 68:10.925579 69:0 70:9.7501059 71:0 72:7.0339408 73:2.0143075 74:4.7399588 75:15.621605 76:0 77:19.697672 78:1.3722332 79:0 80:5.1328301 81:2.1220343 82:0 83:0.55554605 84:1.7618916 85:0 86:0 87:5.8210425 88:0 89:0.69456172 90:1.1919739 91:1.1272788 92:5.2696967 93:0 94:0 95:3.2578936 96:11.697726 97:5.6740813 98:1.3483169 99:0 100:0 101:3.6194165 102:3.7375424 103:0 104:0 105:0.74981487 106:2.8078747 107:0.14599846 108:0 109:3.4254265 110:0 111:4.7784548 112:22.359909 113:2.8006325 114:0 115:0 116:12.82464 117:17.319859 118:12.408216 119:0 120:0 121:4.6630983 122:1.7039272 123:6.2345982 124:0 125:0 126:8.0390234 127:0 128:0.8663187 129:0 130:0 131:3.0246303 132:0 133:1.9493343 134:0.45872384 135:12.837235 136:0.52550334 137:8.7332325 138:3.7449939 139:0 140:3.0736632 141:5.2489228 142:0 143:0 144:16.197355 145:12.15628 146:0 147:0 148:5.6613312 149:4.8366041 150:27.358095 151:0 152:0 153:0 154:18.328386 155:0 156:0 157:9.5381069 158:3.768373 159:0 160:0.26082966 161:0 162:0 163:8.9396057 164:0 165:0 166:11.153857 167:7.187417 168:8.3979702 169:0 170:16.38648 171:0.10297284 172:0 173:0 174:0 175:0 176:0 177:21.549252 178:0 179:0 180:0 181:16.896507 182:13.892781 183:2.0234184 184:0 185:0.6365701 186:17.837294 187:0 188:14.702974 189:5.3742814 190:11.873217 191:0 192:7.8214774 193:0 194:0 195:0 196:11.781038 197:0 198:4.8114977 199:0 200:0 201:17.295847 202:14.491698 203:0 204:0 205:0.011307731 206:9.6839228 207:9.5382147 208:20.850222 209:23.894087 210:0 211:0 212:4.1621232 213:8.7374172 214:0 215:1.5934163 216:0 217:0 218:0 219:10.117011 220:0 221:0 222:0.42382213 223:0 224:0 225:0 226:0.28802714 227:0 228:3.0069654 229:4.7987847 230:4.2716603 231:0 232:0 233:0 234:0 235:0 236:0 237:12.564952 238:12.053154 239:0 240:0 241:0 242:15.924369 243:14.501329 244:3.1231606 245:8.9111013 246:0 247:3.2806802 248:13.112091 249:12.620093 250:0 251:11.34646 252:0 253:2.9252808 254:0 255:0 256:0 257:0 258:0 259:10.178605 260:0 261:8.126997 262:0 263:0 264:0 265:1.146964 266:1.598459 267:17.269758 268:2.9444685 269:9.2381678 270:0 271:9.5097694 272:0 273:5.959157 274:0 275:4.453362 276:7.4659009 277:6.9201531 278:3.4525926 279:0 280:6.5126595 281:11.301123 282:0 283:7.7050581 284:16.173342 285:0 286:3.0336168 287:0 288:2.6078401 289:0 290:7.9659138 291:0 292:0.70831692 293:0 294:0 295:2.7456529 296:0 297:11.167704 298:0 299:0 300:0 301:27.824959 302:15.270288 303:4.426702 304:9.7672052 305:0 306:0 307:3.1835804 308:15.620492 309:0 310:0 311:0 312:5.8568063 313:9.567585 314:0 315:10.603784 316:0 317:6.4882002 318:4.2848234 319:0 320:0 321:19.271715 322:0 323:0 324:0.81611496 325:0 326:0 327:0 328:0 329:0 330:0 331:8.2041492 332:0 333:0.99418861 334:0 335:1.8199121 336:20.11804 337:0 338:12.494952 339:0 340:3.8783994 341:0 342:0 343:6.2929068 344:0 345:0 346:0 347:2.3162098 348:2.446023 349:0 350:0 351:0 352:0 353:0 354:0 355:0 356:0 357:6.1837702 358:0 359:2.4440696 360:0 361:0 362:0 363:3.0248826 364:0 365:0 366:0 367:0.69227225 368:25.047018 369:0 370:0 371:0 372:0 373:22.059799 374:1.9507909 375:18.468935 376:0 377:0 378:0 379:0 380:0 381:0 382:0 383:0 384:12.771665 385:0 386:0 387:0 388:0 389:0 390:0.20001349 391:2.4258296 392:0 393:0.27782029 394:0 395:2.7029285 396:0 397:1.3214054 398:6.9297686 399:0 400:14.609638 401:5.7653127 402:9.2081575 403:0 404:0 405:0 406:0 407:19.923574 408:2.472749 409:1.2266127 410:9.2268705 411:0 412:0 413:7.1050653 414:0.59691781 415:0 416:3.0733721 417:0 418:10.636912 419:17.477055 420:0 421:0 422:9.2150898 423:3.4368603 424:0 425:0.22398542 426:0 427:0 428:0 429:0 430:13.095428 431:1.7636281 432:0 433:0.66220015 434:0 435:0 436:7.4251943 437:0 438:0 439:0 440:0 441:4.3391447 442:0 443:2.0598624 444:3.0182304 445:0 446:0 447:12.261437 448:10.151437 449:17.06776 450:0 451:0 452:11.635234 453:8.5549517 454:0 455:0 456:0 457:6.6690688 458:0 459:0 460:0 461:0 462:0 463:0 464:0 465:17.112976 466:0 467:0 468:4.5165601 469:0.85173661 470:7.9264154 471:6.0852346 472:8.9314871 473:0 474:11.838211 475:0 476:0.019952592 477:3.1259131 478:0 479:17.287252 480:0 481:0.335825 482:0 483:0 484:0 485:1.4007978 486:0 487:0 488:3.6859386 489:18.202656 490:2.0422249 491:0.96501613 492:17.216799 493:0 494:0 495:13.589834 496:29.76755 497:0 498:22.482325 499:0 500:0 #
-0.01 1:4.6653132 2:0 3:0 4:21.211201 5:1.3942792 6:1.8367759 7:0 8:0 9:10.370796 10:16.396051 11:16.938297 12:5.9264846 13:0 14:0 15:0 16:14.593272 17:0.12867226 18:0 19:10.392904 20:0 21:0.74015051 22:2.154722 23:8.1807842 24:0 25:17.89884 26:0 27:10.805231 28:3.3951056 29:3.2678313 30:2.1835003 31:2.776355 32:3.2153029 33:0 34:3.0034218 35:4.0442829 36:10.848584 37:0 38:1.6068506 39:0 40:0 41:19.959154 42:7.7778263 43:9.024827 44:23.781059 45:0 46:1.8101339 47:0 48:0 49:15.133518 50:0 51:2.961791 52:0 53:9.3820963 54:1.8677232 55:0 56:13.779345 57:0 58:9.9504995 59:0 60:1.0013252 61:0 62:0 63:0 64:5.2913671 65:5.0827608 66:0 67:0 68:10.601992 69:22.218895 70:0 71:0 72:0 73:2.1129267 74:0 75:0 76:2.4874771 77:5.1318955 78:16.616959 79:0 80:5.5113969 81:21.415049 82:0 83:0 84:1.8142836 85:0 86:0 87:3.9327168 88:0 89:0 90:0 91:11.313146 92:3.5768104 93:23.180084 94:0.51780385 95:19.583603 96:6.1618366 97:0 98:14.859582 99:6.2065043 100:9.8840084 101:18.103785 102:0 103:0 104:5.5931549 105:0 106:0.44079351 107:0 108:0 109:0 110:0 111:10.791596 112:9.854497 113:2.948627 114:3.0843182 115:18.827591 116:0 117:0 118:12.969976 119:0 120:0 121:5.8604574 122:0 123:0 124:0 125:0 126:1.3849326 127:0.1619442 128:0.82415646 129:0 130:1.7299069 131:6.621572 132:0 133:3.0363369 134:16.474997 135:0 136:0 137:0 138:0 139:17.713842 140:0 141:0 142:2.7538791 143:0 144:1.6176363 145:0 146:5.6913118 147:0 148:12.869321 149:0 150:0 151:11.205168 152:0 153:0 154:10.539478 155:0 156:12.518556 157:0 158:7.0652108 159:0 160:9.570838 161:1.4313055 162:7.3440056 163:24.490726 164:2.4219995 165:0 166:5.9226828 167:0 168:0 169:0 170:0 171:9.9440374 172:0 173:0 174:0.30409843 175:3.1065133 176:22.24395 177:0 178:19.61585 179:0 180:2.0543466 181:30.701881 182:0.91838741 183:0 184:0 185:11.713941 186:0 187:0 188:0 189:0 190:0 191:0 192:5.6717806 193:7.0935264 194:0 195:3.9330914 196:5.2803907 197:7.3080463 198:2.5136185 199:3.20679 200:1.5943274 201:0 202:6.1641593 203:6.3374724 204:0 205:0 206:0.30617717 207:11.527477 208:7.1601911 209:0 210:0 211:2.5527029 212:0 213:0 214:0.66180116 215:5.8441639 216:4.8919587 217:3.8945706 218:0 219:9.3919334 220:0 221:0 222:0 223:0 224:0 225:10.299371 226:0 227:6.3879685 228:14.439699 229:2.5808618 230:5.4539557 231:15.300005 232:0 233:0 234:0 235:28.580994 236:28.529938 237:0 238:0 239:1.110131 240:0 241:7.8091965 242:0 243:0 244:0 245:0.48104659 246:12.296639 247:15.12024 248:0 249:13.032823 250:0 251:6.6942368 252:0 253:0 254:16.286955 255:16.482611 256:2.5345981 257:0 258:26.59693 259:6.7689018 260:0 261:19.31996 262:0 263:0 264:0 265:0.79355806 266:15.083464 267:0.27025989 268:0 269:0 270:0 271:12.233896 272:0 273:0 274:3.8565719 275:0 276:0 277:0 278:0 279:0 280:0 281:0 282:13.047788 283:0 284:0 285:0 286:6.8553405 287:0 288:0 289:0 290:0 291:0 292:0 293:7.9936876 294:0 295:0 296:0 297:3.2786369 298:0 299:17.619249 300:0 301:0 302:0 303:0 304:17.021914 305:0 306:0 307:0 308:0 309:9.4248848 310:13.117625 311:10.398879 312:0 313:0 314:9.1156483 315:6.415143 316:0 317:4.5012221 318:16.014305 319:0.14938933 320:0 321:8.7950668 322:0 323:8.4299946 324:0 325:4.9311366 326:10.009139 327:0 328:2.8193007 329:4.1993208 330:0 331:22.142319 332:11.984852 333:0 334:3.0639219 335:6.9460382 336:0 337:0 338:0 339:3.4051058 340:0 341:0 342:0 343:5.4877834 344:10.495156 345:0 346:0 347:0 348:3.9735067 349:1.2740622 350:18.595922 351:15.66027 352:0 353:0 354:0 355:10.238535 356:0 357:0 358:7.5387034 359:4.0187263 360:0 361:6.9182673 362:2.7545204 363:0 364:5.9434428 365:2.8137686 366:0 367:8.5594492 368:8.5230885 369:0 370:0 371:3.7228019 372:0 373:0 374:0 375:0 376:1.1820627 377:0 378:0 379:0 380:0 381:10.837674 382:0 383:7.8764653 384:0 385:2.838141 386:5.8321648 387:7.3521962 388:0 389:3.9282532 390:3.282949 391:0 392:2.939925 393:0 394:0.41976613 395:0 396:4.5430369 397:0.95064807 398:0 399:15.524403 400:11.382045 401:0 402:14.373446 403:0 404:0 405:11.505624 406:10.785792 407:6.1572118 408:2.1487536 409:0 410:27.277521 411:0.3374846 412:2.8896391 413:0 414:4.6717062 415:0 416:0 417:0 418:8.2046728 419:0 420:5.5725317 421:5.3573036 422:0 423:6.1895132 424:0 425:4.4094877 426:0 427:6.1074429 428:0 429:1.1044713 430:0 431:10.14651 432:5.8899937 433:0.56077796 434:0 435:1.6044333 436:0 437:11.401093 438:0 439:5.1816297 440:0 441:12.758317 442:1.3273464 443:9.9375334 444:0 445:2.769372 446:16.217096 447:0 448:0 449:1.6228712 450:0 451:15.442264 452:7.2852759 453:6.5753207 454:0 455:0.20814669 456:0 457:10.417518 458:0 459:0 460:0 461:24.304646 462:7.8353167 463:0 464:12.082163 465:2.0423353 466:18.690409 467:0 468:0 469:0 470:6.8110938 471:0 472:0 473:3.8966045 474:0 475:0 476:0 477:2.3881137 478:0 479:7.7616963 480:0 481:4.6335273 482:13.135059 483:0 484:0 485:10.000887 486:0 487:0 488:7.884079 489:0 490:0 491:0 492:4.4946976 493:9.7317829 494:0 495:0 496:0 497:1.1631831 498:0 499:0 500:10.05373 #
0.01 1:5.381362 2:0 3:0 4:0 5:7.7824726 6:0 7:0.45912319 8:11.255555 9:13.951274 10:14.257518 11:2.4389441 12:10.08895 13:0 14:23.41441 15:0 16:0 17:13.012075 18:3.2805452 19:0 20:14.129229 21:21.518703 22:8.2224951 23:20.23485 24:16.613953 25:1.2256477 26:0 27:1.1967688 28:3.5675368 29:9.6329899 30:0 31:8.9694462 32:3.7864604 33:0 34:0.325129 35:5.5868263 36:1.8352207 37:0 38:3.0771589 39:6.9980836 40:0 41:18.437336 42:11.444174 43:0 44:0 45:1.2727489 46:15.810209 47:0 48:0 49:17.186235 50:0 51:14.329636 52:0 53:0 54:0 55:0 56:0 57:17.210787 58:21.131771 59:7.2668629 60:8.4548368 61:6.2063217 62:0 63:0 64:0 65:0 66:0 67:12.338212 68:5.4614735 69:4.7705207 70:0 71:0 72:11.314832 73:0 74:1.0976593 75:2.7786431 76:1.5153404 77:0 78:14.289409 79:14.565552 80:1.4718122 81:0 82:2.8920867 83:17.585127 84:0 85:2.4960837 86:0 87:0 88:12.876622 89:5.5909758 90:0 91:0 92:0 93:2.3294227 94:4.0068617 95:0.41472962 96:0 97:0 98:0 99:0 100:3.1373289 101:0 102:1.9042819 103:0 104:0 105:5.4714966 106:11.940373 107:0 108:0 109:0 110:0 111:17.657351 112:0 113:0 114:5.9835153 115:0 116:5.4728565 117:11.662065 118:4.0293484 119:15.878073 120:0 121:0 122:5.1200476 123:4.817575 124:0 125:0 126:7.4139633 127:0 128:19.32905 129:6.6254582 130:0 131:0.071709782 132:9.1581106 133:0 134:0 135:0 136:0 137:0 138:0 139:0 140:8.6516371 141:0 142:12.417081 143:8.9371414 144:0 145:8.9928856 146:0 147:0 148:0 149:0 150:0 151:0 152:8.5658522 153:2.0008583 154:0 155:14.595225 156:0 157:3.3167355 158:0 159:0 160:0 161:0.10259356 162:0 163:0 164:10.826531 165:0 166:0 167:0 168:8.425209 169:6.3356986 170:11.422327 171:3.5391791 172:0 173:0 174:0 175:5.7209864 176:0.090517797 177:0 178:25.103861 179:0 180:11.790985 181:9.290863 182:2.403554 183:0 184:4.7269602 185:0 186:0 187:0 188:0 189:1.8508394 190:0 191:9.1805849 192:0 193:0.89522982 194:0 195:4.7972736 196:0.36340794 197:6.7419634 198:14.250549 199:10.549958 200:0 201:0.094987631 202:24.068123 203:0.9003998 204:17.028025 205:6.0496721 206:4.3920946 207:0 208:3.8522241 209:3.0906448 210:0 211:0 212:0 213:0 214:6.0371265 215:0 216:0 217:0 218:0 219:8.953886 220:0 221:10.844432 222:10.268377 223:0 224:0 225:0 226:11.931869 227:8.9410439 228:13.343942 229:0 230:0.75228274 231:0 232:9.775795 233:0 234:12.61328 235:0 236:0 237:0.7033 238:24.288597 239:0 240:3.4901993 241:0.60811061 242:0 243:0 244:14.588187 245:1.6921588 246:7.4334188 247:0 248:19.549505 249:4.3568654 250:0 251:0 252:11.679376 253:0.48083663 254:4.2761927 255:17.063375 256:13.213916 257:0 258:2.8114667 259:0 260:0 261:0 262:6.6032782 263:5.5990148 264:0 265:0 266:3.8182292 267:0 268:5.6494622 269:1.7320105 270:10.127065 271:0 272:0 273:10.792094 274:7.5763707 275:4.0525723 276:0 277:0 278:7.7781348 279:16.689955 280:0 281:0 282:11.446786 283:4.131876 284:0 285:7.1216631 286:0 287:6.7947226 288:0 289:0 290:0 291:0 292:0 293:0 294:8.1347818 295:0 296:0 297:4.8114796 298:6.3385863 299:0.51693285 300:1.1709582 301:11.499998 302:20.428501 303:0 304:0 305:2.8772123 306:0 307:0 308:0 309:1.6228529 310:1.677915 311:2.7292008 312:0 313:0 314:11.897256 315:0 316:0 317:0 318:0 319:16.153152 320:13.8867 321:8.0449581 322:13.807511 323:4.3326507 324:0 325:0 326:0 327:4.9619846 328:0 329:5.4858947 330:0 331:0 332:6.7837343 333:7.0502629 334:0 335:0 336:0 337:4.1355662 338:0 339:0 340:0 341:0 342:18.08358 343:0.1862933 344:8.8122549 345:0 346:0 347:0 348:1.1938927 349:16.951712 350:4.5875549 351:0 352:7.2093506 353:0 354:7.2811022 355:0 356:4.9715219 357:0 358:3.7464674 359:10.65937 360:5.8034339 361:16.773184 362:0 363:4.1135306 364:0 365:0 366:0 367:11.421917 368:14.667023 369:7.9448066 370:2.8487682 371:3.1666484 372:0 373:12.3995 374:0 375:0 376:13.467559 377:2.6816697 378:3.3318696 379:0 380:0 381:0 382:2.2084887 383:17.764992 384:15.270725 385:11.363179 386:6.6391363 387:9.2639027 388:0 389:3.4883049 390:0 391:6.0337706 392:11.251173 393:0 394:14.629617 395:0 396:0 397:0.93390137 398:0 399:0 400:0 401:0.41250432 402:0 403:2.4355423 404:0 405:0 406:0 407:0 408:0 409:12.906053 410:1.8242546 411:9.5640821 412:8.4678497 413:3.805649 414:4.287766 415:8.3892908 416:0 417:0 418:13.173421 419:7.7238708 420:11.768519 421:1.7431551 422:4.0942168 423:6.076664 424:0 425:3.1607563 426:0 427:12.764806 428:10.339108 429:0 430:8.9665565 431:6.7182698 432:26.52066 433:19.915367 434:5.441792 435:0 436:13.202436 437:14.1985 438:2.566627 439:6.948102 440:8.5305681 441:8.4625797 442:18.415611 443:10.439436 444:28.845007 445:7.4469166 446:13.717589 447:12.95346 448:21.033596 449:11.231174 450:0 451:0.65702564 452:6.6066604 453:12.712124 454:0 455:12.819821 456:0 457:20.859907 458:7.7182145 459:3.2040572 460:0 461:11.30704 462:0 463:8.8212595 464:7.866991 465:0 466:11.519003 467:2.6923678 468:0 469:7.5559711 470:0 471:0 472:8.5369635 473:4.6467843 474:0 475:0 476:0 477:0.69549978 478:14.318398 479:4.3531876 480:0 481:0 482:12.178747 483:0 484:2.8174648 485:12.647885 486:4.8214574 487:18.242208 488:5.3746095 489:21.211575 490:0 491:0.6335324 492:10.060956 493:0 494:0 495:0 496:0 497:5.9678025 498:0.48163047 499:0 500:0 #
-0.01 1:0.30035016 2:3.9787893 3:7.6348147 4:2.6184683 5:7.0428195 6:0 7:0 8:9.2535772 9:0 10:6.9642053 11:2.1615491 12:7.4975262 13:0 14:0.29513043 15:16.018215 16:0 17:3.9490376 18:0 19:0 20:3.8184667 21:11.174863 22:8.4537258 23:0 24:0 25:0 26:8.4672956 27:0.80436015 28:0 29:11.159411 30:0 31:0 32:16.783556 33:1.7054821 34:5.6132731 35:6.0668097 36:0.52958393 37:7.0592384 38:12.966388 39:6.5825009 40:12.117632 41:2.2079902 42:0 43:0 44:0 45:0 46:16.097553 47:0 48:0 49:0 50:4.6532769 51:0 52:0 53:5.57723 54:0 55:13.421516 56:0 57:4.7542682 58:6.7318106 59:0 60:0 61:4.7418909 62:1.8790255 63:3.7517474 64:0 65:22.606346 66:1.3338541 67:3.7533066 68:0.78620619 69:0 70:0.41340813 71:0 72:11.12125 73:0 74:11.191625 75:0 76:6.5200944 77:4.5805516 78:14.833295 79:0 80:0 81:0 82:0.64997423 83:0 84:7.2480016 85:0 86:0 87:0.47248992 88:2.3078232 89:0 90:0 91:11.788814 92:0 93:7.2155533 94:0.65313739 95:0 96:3.1660156 97:0 98:0 99:0 100:0 101:4.1434579 102:0 103:0 104:10.394223 105:11.626593 106:2.4676454 107:1.4459507 108:0 109:18.600048 110:2.9534416 111:7.7906895 112:7.7170243 113:0 114:0.4270325 115:0 116:3.2322695 117:8.6476307 118:14.271353 119:0 120:0 121:8.6199617 122:1.8858707 123:0 124:9.3860464 125:0 126:2.1283257 127:0 128:0 129:16.908922 130:4.9700971 131:0 132:0 133:13.998847 134:0 135:0 136:1.7302101 137:14.729888 138:0 139:5.7051458 140:1.5238333 141:4.8394399 142:0 143:0 144:19.697096 145:0 146:0.34860116 147:0 148:10.428097 149:16.626513 150:0 151:11.750706 152:0 153:0 154:6.5496583 155:0 156:0 157:6.5143952 158:11.602068 159:0 160:0 161:0.456929 162:12.548423 163:0 164:5.1407018 165:1.5192938 166:4.186995 167:0 168:0 169:0 170:0 171:0 172:16.296661 173:0 174:0 175:6.6804094 176:0 177:0.67633808 178:3.7797937 179:0 180:11.394674 181:5.2812138 182:8.8231659 183:15.314231 184:0 185:10.658777 186:21.813263 187:14.178638 188:0.5893088 189:12.580519 190:0 191:3.7676582 192:0 193:5.3931575 194:5.6554151 195:0 196:3.9002395 197:18.340488 198:0 199:0 200:5.8526139 201:14.111437 202:0 203:0 204:0 205:17.737894 206:0 207:4.0094204 208:0 209:0 210:12.729347 211:14.230085 212:0 213:0 214:0 215:16.26368 216:18.566635 217:0 218:0 219:1.581862 220:2.8255241 221:11.4994 222:0 223:0 224:0 225:0 226:5.169785 227:0 228:0 229:11.909855 230:8.5538292 231:0 232:4.9512496 233:0 234:0 235:5.5149903 236:0.042162813 237:7.664896 238:24.443083 239:0 240:0 241:0.1375307 242:0 243:0 244:7.2677016 245:0 246:0.96474504 247:13.012328 248:0 249:0 250:0 251:4.6148057 252:1.767505 253:8.8148575 254:0 255:0 256:2.2135818 257:11.348348 258:12.01019 259:2.1591492 260:20.34202 261:2.5296824 262:7.5739207 263:2.1926084 264:17.367884 265:0 266:5.9444551 267:0 268:0 269:13.441839 270:0 271:3.5018072 272:4.5601444 273:4.5173559 274:18.827784 275:0 276:19.562975 277:0 278:0 279:8.2729568 280:0 281:0 282:0 283:0 284:11.23977 285:16.424025 286:12.802828 287:28.218388 288:0 289:0.99132013 290:0 291:0 292:0 293:0 294:0 295:0 296:0 297:0 298:0 299:0 300:0 301:9.014451 302:12.270103 303:4.8474784 304:0 305:10.463032 306:0 307:0 308:0 309:0 310:0 311:2.4345803 312:6.3153906 313:8.2799072 314:0.84042996 315:0 316:13.689289 317:0 318:11.185385 319:0.43645144 320:1.2652271 321:0 322:0 323:5.4293599 324:0 325:0 326:0 327:0 328:4.3248978 329:0.77427846 330:0 331:1.0893337 332:9.7610865 333:0 334:0 335:6.5311551 336:5.0359244 337:12.398287 338:0 339:0 340:9.1982794 341:0 342:9.1758471 343:7.3567729 344:0 345:0 346:0 347:0 348:0 349:0.74551201 350:0 351:0 352:22.535269 353:8.7884054 354:10.813503 355:0 356:5.3822117 357:0 358:0 359:0 360:0 361:0 362:0.69148272 363:4.7236037 364:1.7729771 365:6.9228516 366:0 367:0 368:10.418354 369:0 370:0 371:2.8425486 372:6.1375508 373:0 374:22.612587 375:0 376:2.6481194 377:0 378:0 379:0 380:9.8426018 381:9.8864107 382:0 383:7.0512938 384:8.281641 385:0 386:8.5849485 387:0 388:0 389:3.8618081 390:0 391:0 392:0 393:0 394:14.016583 395:7.9838958 396:3.8463719 397:0 398:0 399:0 400:11.059484 401:2.8138869 402:0.92841864 403:8.2764874 404:0 405:0 406:9.2244291 407:9.387908 408:4.5139008 409:7.1062231 410:2.8809614 411:0.18282342 412:12.081271 413:4.268899 414:0 415:0 416:11.251842 417:0.06150797 418:0 419:0 420:0 421:0 422:0 423:0 424:0 425:0 426:8.4909449 427:0 428:0 429:0 430:0 431:2.5244598 432:12.464833 433:6.1776624 434:9.6856966 435:0 436:0.4656792 437:0 438:0 439:0 440:4.8038568 441:13.16128 442:14.505451 443:7.3009429 444:0 445:0 446:6.4399266 447:0.58594245 448:0 449:0 450:0 451:19.214239 452:7.3858633 453:0 454:9.1583271 455:5.1274261 456:20.122101 457:0 458:0 459:3.1857862 460:0 461:16.865028 462:0.71770817 463:0 464:5.3080125 465:0 466:0 467:0 468:0 469:0 470:0 471:0.14286588 472:1.7567025 473:0 474:0 475:0 476:0 477:8.362174 478:0 479:22.429943 480:1.7388293 481:12.296391 482:0.019124346 483:0 484:9.8522482 485:0 486:4.1947246 487:2.0118048 488:0 489:0 490:0 491:0.39718038 492:0 493:0.022748664 494:0 495:0 496:0 497:0 498:15.318724 499:8.0258007 500:0 #
0.01 1:0 2:0 3:4.4148369 4:5.9258075 5:5.7179418 6:9.1590729 7:0 8:2.1916993 9:13.981125 10:0 11:0 12:0 13:7.7601628 14:0 15:0 16:0 17:0 18:0 19:1.6956704 20:2.809406 21:5.3204913 22:4.6895609 23:7.8498421 24:18.059174 25:17.548561 26:0 27:14.095092 28:4.4310403 29:0.58735353 30:0 31:0 32:8.0392017 33:7.8295698 34:8.0581694 35:0 36:4.2312055 37:8.7901373 38:0 39:0 40:0 41:19.087416 42:5.8219676 43:3.3295577 44:0 45:1.9978229 46:0.57081795 47:0 48:0 49:2.5100133 50:0 51:0 52:0.97586608 53:0 54:7.3081341 55:14.171591 56:8.1950674 57:1.788934 58:0 59:1.3371786 60:0 61:0 62:0 63:5.1614184 64:0 65:0.60658932 66:15.992109 67:0 68:5.4765553 69:4.4312282 70:0 71:0 72:12.505527 73:0 74:0 75:0.037488382 76:0 77:0 78:0 79:0 80:18.970238 81:17.836279 82:14.989446 83:0 84:0 85:0 86:8.5105362 87:11.275688 88:0 89:0.0012373875 90:0 91:4.3093152 92:0 93:8.9493322 94:18.169294 95:0 96:0 97:0 98:24.565723 99:0 100:0 101:16.583529 102:0 103:6.8533945 104:0 105:7.2086544 106:5.5401731 107:0 108:0 109:0 110:4.2909851 111:6.3470964 112:2.9356246 113:5.9898801 114:9.342103 115:2.4396732 116:3.7974572 117:7.3649402 118:0 119:0 120:5.694078 121:17.744284 122:0 123:15.551782 124:0 125:0.83624732 126:0 127:10.246621 128:0 129:0 130:9.5714293 131:10.824442 132:4.4816041 133:8.4905291 134:0 135:0 136:11.575704 137:0 138:8.6608238 139:0 140:0 141:5.2440357 142:10.078425 143:13.782743 144:0 145:0 146:0 147:6.6394758 148:0.4569945 149:0 150:0 151:0 152:2.6317995 153:0 154:5.6249633 155:0 156:0 157:0 158:0 159:0 160:0 161:0 162:0 163:0 164:0 165:12.168765 166:3.1858573 167:0 168:13.986137 169:5.5438271 170:0 171:0 172:0 173:11.011985 174:0 175:0 176:0 177:0 178:1.9877604 179:0 180:7.4236021 181:2.0367274 182:5.0485935 183:3.8498335 184:7.7203135 185:0 186:17.218115 187:16.146238 188:15.185014 189:0.54165769 190:0 191:7.6370015 192:1.5831131 193:3.6851218 194:0 195:0 196:0 197:0 198:2.7692719 199:0 200:8.7158079 201:8.3953743 202:24.706635 203:0.79416078 204:0 205:0 206:0 207:1.3964255 208:0 209:0 210:1.4017127 211:9.6477451 212:12.947501 213:7.55756 214:0 215:0 216:0 217:0 218:20.419277 219:14.125996 220:5.4865818 221:0 222:0.71327209 223:0 224:0 225:8.5109968 226:4.8130951 227:0 228:1.3621212 229:18.913061 230:1.3412331 231:0 232:1.2603679 233:3.151227 234:14.192591 235:0 236:0 237:8.3604155 238:0 239:10.828815 240:1.5900073 241:0 242:0 243:8.6272259 244:0 245:0 246:14.683522 247:3.7670219 248:13.310189 249:15.968202 250:0 251:0.18160746 252:6.5486479 253:0 254:3.623425 255:0 256:0 257:0 258:2.2851231 259:0 260:0 261:0 262:0 263:13.599182 264:4.5062046 265:17.570417 266:0 267:15.024424 268:0 269:0 270:0 271:7.737875 272:2.0386071 273:9.3806591 274:0 275:0 276:0 277:16.689459 278:8.2031832 279:5.1023922 280:4.4561744 281:0 282:1.2868946 283:0 284:0 285:8.2744055 286:6.5982985 287:13.216529 288:0 289:10.003344 290:0 291:0 292:1.793988 293:2.3443675 294:4.3473024 295:0 296:5.6719108 297:0 298:7.1226358 299:0 300:20.57765 301:0.50457972 302:9.1690474 303:12.403867 304:13.539506 305:0 306:2.267735 307:4.3613572 308:5.5972719 309:0 310:0 311:0 312:14.618664 313:0 314:12.131489 315:6.1390271 316:0 317:0 318:20.148333 319:25.350212 320:0 321:0 322:0 323:0.064501449 324:0 325:0 326:0 327:0 328:4.8768954 329:9.5600061 330:0 331:13.301876 332:4.0172658 333:0 334:13.329268 335:5.0773463 336:0 337:4.2162447 338:6.9060364 339:0 340:7.3687615 341:10.256003 342:0 343:8.6092663 344:5.4318914 345:12.13768 346:2.1923399 347:9.428647 348:0 349:3.2107453 350:0 351:0 352:3.0163252 353:3.0245452 354:5.8138494 355:0 356:1.756394 357:2.5710552 358:8.9546728 359:9.5247202 360:2.3659587 361:0 362:5.06077 363:0 364:17.602407 365:20.153597 366:0 367:8.3987885 368:0 369:0 370:0 371:1.6727651 372:17.813231 373:3.1120687 374:1.6589715 375:0 376:30.527571 377:1.7163433 378:1.3285456 379:0 380:0 381:8.9713392 382:14.151523 383:3.168371 384:0 385:24.532181 386:0 387:0 388:0 389:0 390:0 391:0 392:12.667565 393:31.356747 394:7.4019871 395:7.5107074 396:1.0540087 397:0.7754401 398:0 399:0 400:0 401:0 402:8.3814316 403:0 404:8.73664 405:9.8057394 406:2.6226959 407:0 408:3.1007872 409:11.645413 410:0 411:5.5225825 412:11.303767 413:5.9983535 414:16.880478 415:0 416:0 417:0 418:17.724911 419:0 420:0 421:0.31123459 422:5.3473654 423:4.7872214 424:7.6017766 425:0 426:0 427:0 428:0 429:5.8450422 430:0 431:15.049617 432:7.414495 433:0.97096503 434:2.3488102 435:0 436:3.6747634 437:4.8811607 438:9.3176966 439:0 440:1.3770454 441:15.559937 442:13.209394 443:1.5476035 444:13.031091 445:2.2691975 446:4.4093499 447:13.889049 448:10.255625 449:14.94113 450:0 451:0 452:0 453:0.56540585 454:0 455:0 456:0 457:1.8153061 458:6.2787099 459:0 460:0 461:22.252722 462:0 463:2.6927769 464:7.0276051 465:2.7031586 466:17.50173 467:9.7003336 468:0 469:16.477316 470:0 471:0 472:18.059668 473:12.265646 474:0 475:13.011453 476:0 477:0 478:0 479:0.700562 480:0 481:2.7543213 482:0 483:0 484:4.2034235 485:0.82984573 486:0.63321078 487:11.452309 488:2.1420028 489:1.2340137 490:21.178902 491:7.8579636 492:11.097301 493:16.930069 494:20.707609 495:0 496:7.778842 497:2.7410257 498:7.3771229 499:8.1143827 500:0 #
-0.01 1:9.8392849 2:0 3:0 4:0 5:0.89336157 6:9.4047194 7:0 8:0 9:9.619235 10:0 11:0 12:0 13:11.685905 14:0 15:2.8179524 16:0 17:7.3290868 18:0 19:11.514768 20:2.305974 21:14.765822 22:0.13829328 23:4.5253758 24:0 25:15.316753 26:0 27:2.3798089 28:10.763557 29:0 30:0 31:0 32:5.1576905 33:4.9076853 34:0 35:0 36:0 37:10.928387 38:10.717867 39:0 40:3.7358055 41:12.95931 42:21.617926 43:0 44:0 45:4.0963845 46:2.6835589 47:16.199612 48:1.8889415 49:5.3909364 50:5.6531529 51:0 52:0.78725153 53:13.836305 54:0 55:8.6534882 56:0 57:0 58:32.656681 59:5.3449769 60:1.8691444 61:0 62:1.1438667 63:0 64:0 65:11.276493 66:6.0596743 67:7.0272298 68:0 69:25.120586 70:0 71:5.7760572 72:0 73:0.0065023331 74:0 75:0 76:0 77:0 78:0 79:0 80:10.150576 81:12.021355 82:16.800991 83:0 84:3.309999 85:6.3462858 86:7.8642311 87:0 88:5.5043044 89:0 90:0 91:0 92:9.9008169 93:0 94:0 95:0 96:0 97:6.9908442 98:12.436757 99:10.398714 100:0 101:0 102:0 103:0 104:0 105:25.492218 106:0 107:0 108:1.5370789 109:9.5930614 110:0 111:0 112:0 113:6.8433638 114:0 115:0 116:3.4726794 117:0 118:3.0465176 119:0 120:0 121:4.8973384 122:0 123:0 124:9.7616606 125:11.75904 126:0 127:7.2044163 128:17.29245 129:12.258682 130:0 131:7.9253235 132:13.226295 133:3.0042815 134:3.5036526 135:4.7692742 136:0 137:0 138:0 139:0 140:0 141:0 142:5.4743881 143:8.1872177 144:6.1352882 145:0 146:4.3093996 147:14.764136 148:0 149:3.3955507 150:0.012487873 151:0 152:0 153:10.883149 154:0 155:0 156:0 157:5.3527169 158:17.388012 159:0 160:11.060487 161:0 162:8.4574375 163:3.2532647 164:0 165:0 166:3.8457499 167:4.3195391 168:8.4016733 169:0 170:0 171:9.7938261 172:15.410244 173:0 174:0 175:18.728672 176:0 177:18.190363 178:5.4712586 179:0 180:24.758179 181:0.85974097 182:0 183:0 184:1.8026398 185:0 186:7.5373168 187:5.2232671 188:6.1813035 189:0 190:0 191:0 192:0 193:0 194:14.822912 195:1.8238317 196:1.4161733 197:0 198:0 199:0 200:6.5254817 201:9.4966469 202:5.3956566 203:0 204:10.936627 205:8.6259975 206:0 207:4.6129875 208:3.1528194 209:0 210:0 211:17.299427 212:1.5271777 213:0 214:0 215:0 216:12.419532 217:1.0836285 218:0 219:0 220:0 221:8.9320145 222:0 223:0 224:0 225:10.678066 226:0 227:5.5888543 228:5.5215507 229:2.7680397 230:0 231:10.214405 232:0 233:0 234:1.1167793 235:0 236:3.0432303 237:8.968646 238:0 239:7.0250082 240:1.4822884 241:5.6522226 242:0 243:9.6755419 244:0 245:16.03083 246:6.6719012 247:0 248:0 249:5.0450788 250:3.2821391 251:0 252:0 253:0 254:3.8800426 255:6.6752 256:7.1120114 257:0 258:3.9510303 259:0 260:0 261:0 262:12.088799 263:0 264:0 265:0 266:0 267:0 268:0 269:8.6995754 270:0 271:0.3794938 272:20.45541 273:2.853368 274:4.4283361 275:3.5615225 276:5.5828686 277:0 278:13.798516 279:0 280:0 281:17.960691 282:0 283:0 284:14.882684 285:14.532744 286:0 287:0 288:6.3136835 289:19.421127 290:0 291:7.4512343 292:0 293:0 294:0 295:16.490511 296:0 297:2.3572145 298:8.127984 299:0 300:5.19451 301:7.7534595 302:0 303:4.0322866 304:0 305:5.2815228 306:0 307:0 308:2.7049763 309:0 310:0 311:0 312:0 313:0 314:0 315:8.1559649 316:0 317:0 318:2.1068263 319:0 320:0 321:7.4454303 322:10.859636 323:0 324:2.9779477 325:0 326:0 327:15.78295 328:5.1075206 329:0 330:0 331:2.9434297 332:0 333:14.333483 334:0 335:0 336:0 337:3.1355999 338:0.64374155 339:2.810564 340:13.283414 341:2.2952058 342:0 343:0 344:0 345:0 346:0 347:7.6143517 348:1.7154003 349:6.0748248 350:0 351:3.5767751 352:0 353:0.50450122 354:0 355:0 356:0 357:0 358:2.3073382 359:17.578548 360:0 361:2.0046542 362:0 363:0 364:0 365:0 366:0 367:5.5981913 368:0 369:2.9266307 370:11.073002 371:0 372:0.93035978 373:0 374:0 375:8.6334152 376:0 377:12.414733 378:0 379:0 380:1.4532787 381:20.512615 382:1.2495432 383:0 384:8.4488029 385:17.178452 386:0 387:2.0947011 388:14.077927 389:0 390:0 391:0 392:5.3791862 393:0 394:12.684573 395:0 396:0 397:0 398:6.5381327 399:20.265207 400:0 401:0 402:0 403:0 404:2.8027384 405:8.714983 406:18.118847 407:0 408:0 409:15.443834 410:0 411:0 412:4.1008072 413:0 414:1.4091856 415:0 416:17.240383 417:0 418:0 419:0 420:27.918034 421:0 422:3.7291894 423:12.362982 424:0 425:0 426:5.0829935 427:0 428:11.448887 429:11.702625 430:10.702525 431:12.318301 432:0 433:21.9263 434:0 435:0 436:0 437:0 438:0 439:6.984715 440:0 441:3.9202492 442:7.88872 443:13.95479 444:0 445:8.9178152 446:0 447:4.2197113 448:1.3953735 449:0.2456834 450:0 451:0 452:0 453:0.10788089 454:0 455:4.501687 456:0 457:0 458:12.039094 459:3.7363365 460:5.1708488 461:17.57531 462:0 463:5.4422898 464:0 465:8.838665 466:0 467:0 468:0 469:0 470:12.561592 471:9.8221331 472:0.34688362 473:0 474:5.5491004 475:0 476:0 477:14.106246 478:0 479:17.905815 480:3.6042037 481:8.5744162 482:0 483:0 484:0 485:2.4388709 486:0 487:0 488:10.578472 489:12.666419 490:0.93922395 491:3.7929308 492:6.6234813 493:0 494:5.5092244 495:0 496:0 497:12.864425 498:0 499:10.344508 500:0 #
0.01 1:11.715962 2:0 3:0 4:5.4287066 5:5.4599361 6:3.1201668 7:10.804384 8:3.4660149 9:4.2155995 10:0 11:0 12:0.80444986 13:0 14:4.028553 15:6.1883903 16:8.601491 17:0 18:0 19:0.13175331 20:0 21:0.91459203 22:0 23:17.21496 24:8.3113966 25:4.0117707 26:0 27:0.51636219 28:0 29:4.2350464 30:0 31:8.3258905 32:0.39489132 33:1.8697811 34:2.743227 35:0 36:5.9080677 37:16.047447 38:1.5437505 39:9.9179516 40:17.999054 41:14.330576 42:0.3472738 43:7.0549541 44:0 45:0 46:2.7864425 47:0 48:0 49:0 50:6.184567 51:0.46575761 52:3.851253 53:0 54:0 55:0 56:2.1549392 57:0 58:0 59:0 60:3.9713259 61:22.607634 62:16.370388 63:2.6278806 64:0.068303548 65:10.342632 66:0 67:0 68:7.0050597 69:0 70:3.8604066 71:0 72:7.2432113 73:11.490181 74:17.061995 75:0 76:1.2652699 77:0 78:0 79:0 80:7.8378377 81:18.359032 82:0 83:0 84:13.79612 85:0 86:0 87:4.4627814 88:0 89:0 90:0 91:5.6636872 92:0 93:6.5869169 94:0 95:0 96:24.386396 97:0 98:5.2678156 99:0 100:0 101:0 102:2.6726236 103:0 104:0 105:0 106:0 107:0 108:13.014118 109:5.577426 110:0 111:0 112:0 113:0 114:6.259922 115:0 116:7.7965012 117:5.4881058 118:0 119:0 120:0 121:0 122:0 123:10.634367 124:14.242462 125:0 126:0 127:0 128:10.828739 129:0 130:0 131:0 132:0 133:11.159449 134:0 135:0.90842354 136:0 137:3.5652363 138:0 139:0 140:0 141:9.7284727 142:0 143:0 144:1.333161 145:0 146:7.3244467 147:0 148:13.360451 149:1.9265766 150:0 151:7.2720881 152:0 153:0 154:0 155:8.2475796 156:10.841016 157:2.624855 158:7.7734008 159:0 160:0 161:5.9971442 162:5.9217992 163:0 164:0 165:0 166:18.646097 167:10.482996 168:0 169:9.2333889 170:17.116524 171:0 172:5.3535657 173:0 174:2.8841832 175:0 176:13.521644 177:0 178:0 179:3.4262922 180:0 181:14.71544 182:0 183:0 184:21.183874 185:15.34442 186:0.3452222 187:0 188:7.8121009 189:0.39991206 190:0 191:6.877151 192:6.1201887 193:3.0333996 194:0 195:0 196:2.1974378 197:5.5921354 198:0 199:14.917089 200:0 201:13.828763 202:27.984262 203:0 204:0.062961444 205:0 206:31.639185 207:0 208:0 209:3.1097631 210:0 211:4.1972351 212:3.4196422 213:5.3200493 214:15.8101 215:3.9443994 216:0 217:0.15622737 218:0 219:0 220:4.2264581 221:12.210135 222:4.937346 223:3.1894257 224:0 225:6.9681673 226:0 227:8.3175421 228:1.8287964 229:8.8973761 230:0 231:8.1864672 232:0 233:0 234:0.84938312 235:3.7764571 236:0 237:14.680627 238:9.3812399 239:2.611624 240:0 241:0 242:0 243:26.058315 244:0 245:0 246:3.2062378 247:0 248:0 249:0 250:0 251:5.8925724 252:6.1128945 253:0 254:0 255:0.76729387 256:7.7285328 257:0 258:5.6696925 259:0 260:4.2819118 261:0.60986549 262:4.764852 263:3.1258454 264:4.9910831 265:0 266:3.5364263 267:12.393965 268:0 269:0 270:1.3527925 271:5.9767146 272:0 273:0 274:7.3538465 275:10.634822 276:12.879874 277:0 278:16.158886 279:1.3284572 280:7.032485 281:4.4546232 282:9.1900997 283:4.7025352 284:24.152754 285:2.3860357 286:9.2298975 287:17.148756 288:0 289:3.844918 290:0 291:12.272572 292:0 293:27.523338 294:0 295:0 296:0 297:0 298:0 299:0 300:7.9782166 301:9.7611008 302:0 303:0 304:6.3516116 305:0 306:0 307:0 308:1.2078567 309:1.0350077 310:0 311:0 312:5.2210383 313:0 314:8.9115276 315:8.4108229 316:2.5793066 317:3.5545044 318:13.176777 319:0 320:0 321:4.8054004 322:30.140953 323:19.303076 324:6.4288816 325:0 326:0 327:0.72176296 328:0 329:19.654274 330:0 331:10.70975 332:0 333:15.065332 334:0 335:16.962269 336:0 337:0 338:0.97137982 339:8.6980839 340:0 341:0 342:19.343491 343:0 344:12.239441 345:0 346:0 347:0 348:0 349:0 350:0 351:18.802137 352:2.1257744 353:6.6961551 354:0 355:0 356:0 357:0 358:10.416847 359:0 360:0 361:0 362:0.010948051 363:2.9324405 364:0 365:0 366:0 367:5.9117579 368:2.0850377 369:11.005356 370:0 371:0 372:0 373:0 374:0 375:18.998896 376:9.0631456 377:0 378:0 379:10.85488 380:2.882417 381:0 382:18.975479 383:9.33354 384:0 385:10.352943 386:1.9782327 387:11.335901 388:5.3961124 389:11.047976 390:0 391:9.605525 392:0 393:0 394:0 395:0.14616135 396:10.840314 397:6.9019947 398:4.0095553 399:0 400:8.5481796 401:0 402:8.0181332 403:0 404:0 405:0 406:0 407:0 408:1.1736141 409:0 410:18.411127 411:14.252535 412:12.254098 413:13.87554 414:8.6089916 415:0 416:0 417:1.730934 418:0 419:3.5917091 420:0 421:0 422:8.6436787 423:0 424:8.3756294 425:0 426:10.932482 427:0 428:18.626606 429:15.033139 430:12.970318 431:0 432:0 433:8.6056805 434:6.1315989 435:0 436:3.6942961 437:0 438:22.589624 439:7.3163624 440:6.3621216 441:2.0111194 442:4.7371259 443:0 444:7.8595004 445:0 446:0 447:1.4135609 448:0 449:18.583023 450:0 451:0 452:0 453:8.1337357 454:0 455:8.804697 456:12.300026 457:11.891978 458:11.670752 459:2.3217828 460:5.2014523 461:0 462:1.8401178 463:5.5555243 464:0.5962522 465:0 466:0 467:0.3765116 468:0 469:0 470:8.3523998 471:0 472:18.472738 473:0 474:0 475:0 476:16.408371 477:0 478:4.7240591 479:0.39297158 480:0 481:8.682292 482:0 483:11.017419 484:1.5659696 485:19.175417 486:0 487:0 488:0 489:0.97779328 490:0 491:0 492:0.11103455 493:2.4530702 494:4.5508308 495:0 496:8.3084326 497:36.088337 498:7.4073048 499:7.1803365 500:0 #
-0.01 1:0 2:14.389497 3:0 4:0 5:13.554357 6:0 7:0.2359336 8:11.791739 9:13.103818 10:8.647522 11:0 12:7.5468884 13:0 14:7.3147564 15:0 16:0 17:6.7412534 18:1.2734926 19:0.80363488 20:9.9326267 21:0 22:18.766088 23:0 24:0 25:0 26:11.841029 27:7.9751201 28:0 29:0 30:17.966284 31:0.15105771 32:6.3269291 33:0 34:5.7170649 35:0 36:0 37:0 38:0 39:1.7511122 40:0 41:0 42:0 43:0 44:5.793385 45:0 46:0 47:0 48:4.5456924 49:0 50:4.7475567 51:22.498075 52:0.14326783 53:12.774131 54:12.590225 55:0 56:10.304019 57:15.618703 58:7.1132231 59:0 60:0 61:0 62:0 63:1.1754589 64:1.9781471 65:16.330271 66:0 67:14.164838 68:0 69:5.584734 70:0 71:19.027258 72:4.9740767 73:12.034159 74:0 75:0 76:0 77:9.1598005 78:4.3839478 79:2.3579021 80:1.8905553 81:6.0008636 82:12.104756 83:0 84:4.9351263 85:29.989635 86:16.41012 87:0 88:8.0919523 89:0 90:0 91:2.1761281 92:8.2862282 93:8.2129984 94:0 95:0.81368345 96:2.6876888 97:15.681568 98:0 99:5.9802985 100:12.440242 101:0 102:8.2675095 103:7.4730015 104:0 105:0 106:6.4750061 107:0 108:4.3299985 109:1.7426388 110:9.4595861 111:0 112:11.479606 113:3.7686589 114:0 115:1.2593755 116:0 117:15.951609 118:0 119:18.305906 120:4.1380649 121:9.0955143 122:0 123:14.397283 124:5.9377885 125:0 126:10.707402 127:26.861691 128:2.420706 129:1.4411513 130:14.292016 131:0 132:8.563714 133:10.134375 134:0 135:11.413046 136:0 137:4.3122005 138:0 139:3.1436012 140:0 141:1.0774179 142:0 143:0 144:0 145:0 146:0 147:3.8088756 148:3.2761276 149:0 150:7.3584275 151:0 152:0 153:3.9729619 154:12.600392 155:0 156:0 157:9.996541 158:28.498768 159:2.8561056 160:8.6861172 161:0 162:0 163:0 164:0 165:1.746304 166:9.8281145 167:0 168:8.4950762 169:0 170:0 171:0 172:3.5898764 173:1.0015371 174:5.8205595 175:0 176:0 177:0 178:0 179:0 180:0 181:4.767992 182:11.68049 183:4.8016582 184:0.85480303 185:0 186:0 187:0 188:0.70356548 189:0 190:21.250198 191:0.76988256 192:3.6386025 193:0 194:7.3877449 195:3.6377213 196:0 197:0 198:6.5803761 199:0 200:0 201:0.64604318 202:3.4431922 203:6.7772341 204:0 205:0 206:13.528673 207:5.3221626 208:12.504858 209:0 210:0 211:0 212:0 213:15.764059 214:0 215:0 216:0 217:6.0405993 218:4.0839887 219:0 220:0 221:14.32784 222:0 223:0 224:13.744666 225:0 226:0 227:0 228:0 229:0 230:5.0681934 231:8.011426 232:8.1229038 233:19.964195 234:21.220747 235:12.208878 236:0 237:0 238:3.5725729 239:0 240:0 241:0 242:3.7998505 243:0.96859926 244:0 245:0 246:0 247:3.8493044 248:18.787298 249:0 250:5.3321662 251:8.5300665 252:0 253:5.682128 254:0 255:0 256:0 257:0 258:0 259:0 260:0 261:0 262:0 263:0 264:0 265:6.1154389 266:0 267:0 268:7.4151306 269:0 270:0.59594893 271:9.5945072 272:0 273:0 274:0 275:5.6788821 276:17.484598 277:16.578543 278:6.3980384 279:3.1557529 280:0 281:2.8013093 282:0 283:0 284:2.9799666 285:0 286:3.5487089 287:0 288:5.6958208 289:13.683216 290:0 291:0 292:0 293:25.575754 294:0 295:0 296:0 297:23.302599 298:0 299:0 300:0 301:2.8694544 302:1.1936117 303:7.7734485 304:1.4244043 305:2.6098242 306:12.952073 307:4.9353724 308:0 309:0 310:11.936396 311:0 312:0 313:26.141228 314:7.5233417 315:0 316:0 317:7.955853 318:1.7309418 319:0 320:0 321:5.2144947 322:0.13305657 323:5.4395361 324:1.2204537 325:0 326:0 327:0 328:0 329:0 330:2.4543309 331:0 332:8.0279217 333:6.0352969 334:2.5063634 335:0 336:0.43639553 337:0 338:7.7136116 339:20.263748 340:1.7156119 341:5.2072849 342:0 343:0 344:9.5592871 345:1.3948324 346:4.8158526 347:7.7021623 348:2.2506201 349:7.9669018 350:12.813522 351:0 352:10.021497 353:3.8466158 354:0 355:5.8843107 356:18.404257 357:0.047488257 358:0 359:0 360:0 361:0 362:0 363:2.885154 364:0 365:0 366:0 367:6.2143111 368:6.2350855 369:0 370:0 371:1.9805261 372:3.6270099 373:0 374:2.0715568 375:6.6803126 376:0 377:5.6963754 378:0 379:0 380:12.427912 381:8.633482 382:19.457626 383:11.655789 384:0 385:0 386:11.637733 387:15.624229 388:8.1341677 389:8.0069237 390:13.486524 391:0 392:0 393:0 394:4.2720284 395:20.185408 396:0 397:10.442722 398:3.9927857 399:5.6266656 400:0.62529916 401:8.5013876 402:0 403:11.3223 404:8.5764246 405:25.571138 406:0 407:4.7388344 408:0 409:0 410:0 411:0.1469233 412:7.6634784 413:0 414:13.808377 415:5.5991654 416:0 417:8.2793322 418:0.96924829 419:0 420:0 421:0 422:0 423:0 424:0 425:0 426:9.2122974 427:0 428:7.8285093 429:0 430:0 431:0 432:13.851538 433:6.5064101 434:0 435:6.5492063 436:0 437:10.775352 438:0 439:8.552578 440:13.355865 441:0 442:2.9657845 443:0 444:9.842454 445:3.653831 446:0 447:0 448:0 449:0 450:20.644714 451:3.0673709 452:0 453:4.2963486 454:0 455:7.9637423 456:8.8388929 457:0 458:9.6629057 459:13.238412 460:0 461:0 462:16.751802 463:0 464:0 465:0.82259375 466:15.22047 467:0 468:3.7597582 469:0 470:4.1992564 471:0 472:3.0095458 473:0 474:18.344856 475:22.979393 476:13.681696 477:8.8413687 478:3.1537547 479:0.1050304 480:8.9028606 481:0 482:1.1704978 483:9.9396486 484:0 485:12.553943 486:5.5378976 487:0 488:15.174558 489:0 490:8.6277561 491:0 492:5.1521506 493:3.4191892 494:11.277112 495:0 496:0 497:0 498:0 499:13.651524 500:2.8039627 #
0.01 1:5.0570025 2:6.3233809 3:2.1887169 4:6.6943002 5:4.1162024 6:19.141037 7:0 8:0 9:0 10:0 11:7.937685 12:0 13:0 14:1.6522076 15:3.9815879 16:12.923111 17:3.7772281 18:21.963512 19:13.095624 20:0 21:1.4967254 22:11.901776 23:4.0753026 24:7.7828631 25:7.9755077 26:8.3332996 27:6.7340469 28:23.567652 29:8.2445145 30:0 31:0 32:4.5394654 33:0 34:0 35:0 36:30.129292 37:0 38:0 39:7.2326856 40:0 41:0 42:0 43:10.927378 44:0 45:0 46:0 47:0 48:0 49:0 50:1.4950219 51:8.1762514 52:0 53:5.1087437 54:0 55:3.1850517 56:0 57:1.4786576 58:0 59:0 60:0 61:3.2636654 62:7.8178787 63:0 64:0 65:0 66:0 67:0 68:3.3162613 69:0 70:0 71:0.40150949 72:0 73:0 74:0 75:15.398438 76:0 77:0 78:1.4723512 79:0 80:0 81:0 82:1.674116 83:3.1997268 84:6.9880056 85:2.3480623 86:0 87:2.098098 88:0 89:7.3431277 90:0 91:0 92:0 93:7.3131108 94:0 95:4.8052278 96:0 97:5.6357274 98:3.2387533 99:23.133938 100:0 101:6.0290093 102:0 103:0 104:0 105:0 106:0 107:17.203457 108:0 109:7.6871486 110:0 111:0 112:0 113:12.575788 114:0 115:0 116:8.7278557 117:0 118:0 119:7.7127333 120:0 121:6.2135763 122:0 123:0 124:2.0697055 125:9.7991924 126:0 127:0 128:9.3144245 129:0 130:0 131:6.9658241 132:0 133:12.975288 134:0 135:9.7525148 136:0 137:13.824443 138:6.561285 139:0 140:0 141:7.0386248 142:12.507582 143:0 144:0 145:0 146:3.2078507 147:11.394564 148:13.358641 149:0 150:6.626658 151:0 152:0.36757395 153:4.9972997 154:0 155:0 156:20.492901 157:0 158:0 159:0 160:0 161:0 162:0 163:0 164:2.5238266 165:20.396971 166:0 167:0 168:0 169:7.1517005 170:0.11533238 171:16.823742 172:0 173:4.2628732 174:8.2621527 175:20.171984 176:0.52119535 177:0 178:0 179:0 180:2.1811631 181:1.7594551 182:13.787764 183:5.9039483 184:0.30675843 185:7.3591619 186:8.5043287 187:0 188:4.7920017 189:0 190:0 191:0 192:21.952173 193:0 194:12.771793 195:1.502565 196:0 197:14.648834 198:16.290327 199:21.192114 200:0 201:4.5995841 202:0 203:0 204:0 205:0 206:2.7023239 207:6.666306 208:0 209:11.754587 210:0 211:0 212:13.135255 213:0 214:0 215:0 216:0 217:1.8125516 218:0 219:0.74667931 220:8.5158281 221:0.77342123 222:5.1803842 223:5.5471487 224:1.1554623 225:8.1160393 226:9.0826406 227:0 228:0 229:0 230:0 231:0.39640188 232:0 233:0 234:0 235:0 236:0 237:0 238:0 239:0 240:0 241:0 242:3.1578817 243:0 244:8.9848032 245:0 246:3.6758647 247:0 248:0 249:0 250:0 251:0 252:0 253:0 254:0 255:0 256:0 257:0 258:11.809558 259:0 260:0 261:0 262:0 263:0 264:0 265:0 266:0 267:8.1520195 268:0 269:5.6601844 270:1.1090554 271:0 272:0.76239038 273:1.1843722 274:5.3467779 275:8.8903246 276:20.834009 277:5.4651594 278:0 279:0 280:7.7894859 281:5.4104619 282:7.2685261 283:8.1707983 284:11.162486 285:0.39630267 286:0 287:0 288:6.1386852 289:1.6226361 290:0 291:0 292:10.603188 293:16.688847 294:5.3660293 295:0 296:13.250703 297:7.0434961 298:0 299:11.474098 300:0 301:3.5420544 302:0.55352974 303:9.8351288 304:15.604894 305:0 306:0 307:0.899845 308:12.361695 309:0 310:1.3116016 311:22.110435 312:0 313:0 314:0 315:0 316:0 317:0.15981656 318:10.169128 319:0 320:7.765533 321:3.2188542 322:0 323:16.05978 324:0 325:0 326:0 327:0 328:0 329:17.766432 330:1.8279349 331:4.2670989 332:0 333:0 334:0 335:0.50477087 336:12.214501 337:2.8173072 338:0 339:0 340:0 341:13.540508 342:0 343:0 344:0 345:9.9411077 346:7.3434968 347:20.469425 348:13.587306 349:0 350:0 351:0 352:1.3195766 353:0 354:22.804649 355:0 356:0 357:15.949568 358:0 359:0 360:9.6295738 361:0 362:0 363:0 364:1.2073927 365:0 366:0 367:11.979973 368:21.534777 369:7.4535851 370:0 371:0 372:7.4679146 373:0 374:0 375:0 376:0 377:0.25934494 378:0 379:11.476115 380:0 381:0 382:0 383:0 384:0.86829561 385:0 386:0 387:0.047073618 388:0 389:0 390:0 391:9.7142763 392:0 393:0 394:0 395:0 396:13.062121 397:2.4181988 398:1.2680119 399:0 400:16.763363 401:12.115912 402:0 403:0 404:2.6957872 405:0 406:12.528419 407:15.266336 408:30.068848 409:2.9242027 410:3.6657398 411:4.7921233 412:0 413:11.793258 414:18.722326 415:0 416:0 417:5.4143696 418:7.5085192 419:0 420:0 421:22.807098 422:13.660256 423:0 424:0 425:16.858021 426:6.015274 427:15.415163 428:0 429:1.7482008 430:0 431:0 432:10.744033 433:11.333315 434:0 435:0 436:10.498055 437:0 438:0 439:0 440:21.036139 441:5.8671188 442:13.573622 443:0 444:0 445:0.54746741 446:0 447:0 448:13.288452 449:17.278727 450:0 451:0 452:13.901095 453:0 454:0 455:0 456:8.2565327 457:11.020406 458:11.144949 459:2.362201 460:0 461:4.0916839 462:0 463:0 464:0 465:2.891238 466:0.89278293 467:5.7732081 468:4.5639496 469:14.803316 470:6.324337 471:0 472:3.6274545 473:4.7713857 474:0 475:0.70179677 476:0 477:0 478:8.3371325 479:20.912767 480:0 481:0 482:1.6225082 483:1.1431273 484:0 485:0 486:0 487:0 488:6.6293316 489:4.9382405 490:0 491:5.9854512 492:0 493:0 494:4.7587285 495:4.7648807 496:0 497:1.5906317 498:0 499:0 500:7.6700888 #
-0.01 1:0 2:0 3:0 4:0 5:9.5468254 6:5.0693312 7:0 8:10.081666 9:8.8293047 10:2.2450531 11:5.1630125 12:0 13:0 14:0 15:0 16:0 17:0 18:3.083966 19:4.2728114 20:0 21:10.272764 22:0 23:0 24:13.546219 25:2.0642297 26:11.449305 27:0 28:0 29:0 30:0 31:5.9283242 32:9.1309013 33:0 34:3.8834658 35:0.47232789 36:6.0864496 37:0 38:0 39:21.19434 40:0 41:4.0120339 42:0 43:9.8259392 44:7.9101515 45:4.1466913 46:0.97414809 47:0 48:0 49:3.7778161 50:0 51:0.37797803 52:3.6666863 53:0 54:12.650723 55:7.6899672 56:0 57:0 58:9.4209404 59:1.6482723 60:8.1003275 61:0 62:0 63:12.435833 64:6.1086841 65:10.508043 66:16.32773 67:10.635776 68:13.425496 69:0 70:0 71:13.519557 72:0 73:0.69498414 74:2.3648627 75:0 76:0 77:0 78:0 79:4.3266468 80:0 81:5.3108411 82:0 83:6.1355906 84:0 85:0 86:9.3371525 87:0 88:0 89:0 90:1.8639359 91:8.6712933 92:13.912564 93:8.0053625 94:0 95:0 96:0 97:0.93255752 98:0 99:9.8783207 100:0 101:0 102:7.0692477 103:16.160784 104:5.4970584 105:0 106:17.909332 107:0 108:0 109:2.1512523 110:0 111:0 112:0.11007706 113:18.985895 114:0.069894694 115:0 116:11.616824 117:8.5437346 118:14.95491 119:0 120:1.1914575 121:7.3389454 122:0 123:0 124:9.0145693 125:12.766481 126:7.4980965 127:0 128:1.9669687 129:8.6805744 130:2.5122547 131:9.7130013 132:0 133:0 134:9.6342611 135:6.7848663 136:3.9310465 137:4.2331123 138:0 139:3.2818832 140:0 141:11.447763 142:0 143:18.098736 144:0 145:7.5547261 146:3.1884887 147:2.3096888 148:0 149:0 150:0 151:0 152:0 153:5.7927561 154:12.175207 155:2.0408602 156:6.9331441 157:6.7268105 158:0 159:3.8760407 160:4.5156064 161:0 162:3.6538293 163:0 164:0 165:4.8163438 166:1.9054036 167:6.4722996 168:0 169:0.2529012 170:0 171:0.63785332 172:7.125895 173:2.9509661 174:0 175:0 176:0 177:0 178:2.7673299 179:13.935043 180:0 181:0 182:0 183:3.7501113 184:1.3297231 185:0 186:15.233898 187:0 188:0 189:0 190:0 191:0 192:0 193:4.1370964 194:0 195:6.4388194 196:11.962327 197:8.8082714 198:13.886649 199:0 200:11.091579 201:12.527614 202:3.1054909 203:0 204:0 205:6.2461691 206:0 207:1.8144845 208:4.372788 209:0 210:0 211:12.296289 212:0 213:0 214:0 215:3.2074749 216:7.5223045 217:0 218:0 219:0 220:6.3592129 221:0 222:5.6004024 223:0 224:0 225:0 226:2.1990566 227:0 228:0 229:0 230:10.962275 231:0 232:0 233:0 234:0 235:6.6625414 236:0 237:7.6049118 238:17.439785 239:3.8194911 240:11.927124 241:0 242:0 243:0 244:0 245:0 246:0 247:3.3915806 248:0 249:0 250:1.0968326 251:0 252:0 253:5.5717525 254:0 255:6.3070273 256:12.219793 257:8.6383457 258:7.2344975 259:0 260:0 261:1.9367911 262:0 263:0 264:0 265:0 266:0 267:0.97457647 268:0 269:0 270:2.8678546 271:0.69009769 272:0 273:9.2691364 274:0 275:0 276:4.6870251 277:0 278:12.563081 279:0 280:0 281:0 282:16.683125 283:0 284:0 285:0 286:6.1634541 287:1.6197556 288:1.1660351 289:0.68752021 290:0 291:11.50645 292:0 293:0 294:0 295:0 296:5.9289751 297:12.857027 298:0 299:0 300:0 301:0 302:0 303:10.700127 304:5.7465768 305:2.9809339 306:0 307:0 308:2.717907 309:0 310:0 311:0 312:0 313:7.6135459 314:5.7963638 315:17.975201 316:1.1209351 317:3.5447516 318:23.105034 319:3.8773584 320:0 321:0 322:0 323:15.189807 324:5.0580373 325:4.8045759 326:0 327:2.8730886 328:0 329:0 330:1.9207736 331:8.7724628 332:0 333:2.736033 334:0 335:3.6519704 336:0 337:0 338:3.5454576 339:3.337594 340:11.446267 341:11.424098 342:0 343:0 344:0 345:1.4681163 346:0 347:0 348:0 349:18.616598 350:8.1792698 351:0 352:0 353:0 354:0 355:0 356:0 357:0 358:2.5649724 359:27.111141 360:0 361:0 362:11.636045 363:0 364:8.8619318 365:0 366:4.0167975 367:7.0700097 368:0 369:9.4846487 370:0 371:3.6787043 372:0.76654196 373:0 374:0 375:0 376:2.0926368 377:14.428967 378:0 379:0 380:0 381:0 382:13.904293 383:3.4777081 384:4.364224 385:0 386:3.4743576 387:17.297739 388:11.442788 389:0 390:0 391:0 392:5.3401752 393:0 394:0.47589612 395:0 396:0 397:3.155221 398:5.7539773 399:0 400:0 401:13.058164 402:2.5779035 403:2.4870417 404:0 405:0 406:0 407:0.21472284 408:0 409:0 410:0 411:2.8404086 412:4.7059383 413:2.7940307 414:0 415:0 416:0 417:0 418:0 419:0 420:0 421:0 422:0 423:0 424:0 425:0 426:9.2142878 427:0 428:0.61026049 429:0 430:0 431:0 432:6.4631371 433:0 434:2.1253147 435:0 436:0.20899086 437:0 438:0 439:5.9860244 440:0 441:3.7527356 442:0 443:0 444:0 445:11.258533 446:0 447:5.8910127 448:31.359903 449:0 450:0 451:5.392036 452:0.35708225 453:0 454:0 455:0 456:0.093591228 457:0 458:0 459:0 460:0 461:0 462:11.700158 463:5.9303546 464:0 465:0.94130659 466:15.23714 467:0 468:0 469:0 470:0 471:0 472:0 473:15.736967 474:4.0495639 475:8.0759535 476:0.80866611 477:0 478:0 479:0 480:12.694757 481:0 482:0 483:0 484:2.0723803 485:11.137774 486:0 487:2.7803135 488:0 489:10.139011 490:18.319622 491:1.3109937 492:0 493:15.045647 494:7.8190804 495:16.113276 496:31.637037 497:0 498:0 499:0 500:11.301714 #
0.01 1:0 2:11.120641 3:5.3435626 4:5.1746645 5:0 6:2.6826041 7:9.4726009 8:24.88467 9:1.8359238 10:0 11:0 12:0 13:29.334843 14:0 15:10.475266 16:0 17:12.867246 18:0 19:2.6186419 20:1.3739958 21:3.575449 22:16.135576 23:8.0963001 24:0 25:0 26:11.147746 27:9.6624594 28:0 29:0 30:0 31:0 32:1.1192427 33:7.919384 34:0 35:8.5171099 36:0 37:0 38:3.674561 39:3.901911 40:2.4561117 41:0 42:6.3667984 43:0.9904471 44:0 45:0 46:5.914434 47:5.0181751 48:18.697483 49:9.9548292 50:3.8426368 51:0 52:6.8204112 53:0 54:0 55:0 56:0 57:0 58:0 59:0 60:0 61:4.687851 62:2.3079791 63:2.6483178 64:1.748855 65:3.434387 66:0.054953456 67:9.0289354 68:0 69:21.718208 70:26.292517 71:4.0317092 72:2.1418996 73:0 74:5.7216702 75:0 76:0 77:0 78:0 79:0 80:14.124075 81:0 82:0 83:0 84:6.1549301 85:0 86:5.297452 87:0.40132794 88:10.856224 89:0 90:6.3080182 91:0 92:0 93:0 94:5.3916836 95:3.8906393 96:0 97:2.053355 98:7.4362745 99:6.2357225 100:0 101:0.33813483 102:0 103:0 104:0 105:0 106:2.1210141 107:20.898041 108:2.8583128 109:8.0613432 110:0 111:10.514555 112:0 113:6.0150695 114:0 115:4.7987289 116:0 117:0 118:0 119:8.9026899 120:12.131659 121:0 122:6.7114201 123:0 124:10.74111 125:0 126:6.0619712 127:0 128:14.371731 129:5.3367739 130:5.8504729 131:6.1855068 132:0 133:2.4420307 134:1.447852 135:4.1238694 136:0 137:6.6824384 138:2.1583993 139:0 140:9.7457485 141:0 142:0 143:7.7418742 144:6.4189472 145:9.125782 146:3.1098425 147:8.7630873 148:0 149:0 150:0 151:2.9774017 152:17.750614 153:7.4019303 154:9.3286667 155:0 156:1.3024372 157:2.4791098 158:8.7441673 159:5.2380829 160:0 161:0 162:15.810075 163:0 164:0 165:0 166:4.4011602 167:0 168:0 169:0 170:0 171:15.85228 172:0 173:0 174:6.4501305 175:0 176:6.821919 177:0 178:0 179:13.388083 180:0 181:4.1691756 182:2.0555828 183:8.5878658 184:0 185:3.0270748 186:4.8188095 187:0 188:0 189:22.532064 190:0 191:0 192:5.7599154 193:12.110401 194:0 195:0 196:0 197:23.114424 198:0 199:0 200:0 201:13.225355 202:0 203:6.2393179 204:8.9284744 205:0 206:0 207:0 208:0 209:2.2332535 210:4.0110669 211:0 212:11.731432 213:0 214:0 215:10.578543 216:3.7114799 217:0 218:13.426223 219:0 220:0 221:0 222:0 223:11.568304 224:0 225:12.958322 226:0 227:11.436579 228:11.591918 229:2.7946565 230:1.5361243 231:2.6740651 232:0 233:7.9432349 234:4.0886307 235:6.5904994 236:0 237:2.7536614 238:6.604888 239:0 240:0 241:0 242:6.5910974 243:0 244:0 245:6.9231205 246:1.1270746 247:5.4351387 248:10.608771 249:2.4677899 250:12.425433 251:0 252:12.822962 253:0 254:1.477224 255:0 256:27.535271 257:0.098053552 258:9.205369 259:0 260:1.863979 261:0 262:0 263:1.2890562 264:8.4556398 265:0 266:3.0679259 267:10.287563 268:1.2780571 269:13.147717 270:0 271:9.4905548 272:6.9642472 273:7.1640162 274:6.4736652 275:0 276:0 277:0 278:2.6359892 279:0 280:0 281:22.541182 282:0 283:0 284:17.026201 285:7.4736843 286:4.8679867 287:5.6844769 288:0 289:1.5505931 290:0 291:0 292:11.031936 293:3.6905057 294:1.601537 295:0 296:8.5283766 297:0 298:0 299:2.7501915 300:2.4374638 301:4.7354751 302:4.8400521 303:0 304:5.4119611 305:1.6160002 306:23.379953 307:7.311512 308:0 309:20.249008 310:0 311:0 312:6.7981749 313:16.733826 314:3.0545716 315:0.60199326 316:0 317:0 318:6.8087754 319:0 320:0 321:7.7169571 322:9.0349236 323:15.401663 324:0 325:0 326:0 327:9.3030968 328:0 329:0 330:0 331:11.045372 332:0 333:0 334:0.6381256 335:0 336:15.259905 337:0.64177668 338:17.587151 339:0 340:33.127937 341:0 342:24.62929 343:0 344:0 345:0 346:1.1565167 347:18.302225 348:16.97003 349:2.6703241 350:10.604548 351:1.6554488 352:13.004554 353:0 354:10.126306 355:8.7830486 356:0.98213768 357:0 358:0 359:12.487801 360:0 361:0 362:0 363:1.7215215 364:4.4363322 365:0.1719968 366:9.3796577 367:0.24887303 368:0 369:0 370:0 371:10.212074 372:16.45075 373:0 374:1.3807287 375:10.515096 376:6.1354012 377:0 378:0 379:0 380:0 381:1.1241465 382:0 383:10.357764 384:0 385:0 386:13.69364 387:2.7840433 388:0 389:0 390:0 391:8.4378605 392:0 393:6.1772184 394:0 395:2.0327749 396:7.6087708 397:14.35889 398:7.7640071 399:0 400:1.7316536 401:0 402:0 403:0 404:0 405:4.153697 406:4.541748 407:20.015059 408:1.9689225 409:4.4302802 410:0 411:0 412:0 413:7.6854959 414:5.9666572 415:0 416:0 417:0 418:0 419:0.82457036 420:5.1837969 421:4.5721102 422:16.506445 423:7.3022413 424:0 425:0 426:13.869817 427:2.7205899 428:1.7570609 429:15.590964 430:9.1213198 431:0 432:2.9302194 433:0 434:4.3581142 435:0 436:0 437:0 438:0 439:0 440:0 441:0 442:0 443:0 444:0.7334491 445:9.8788061 446:16.359863 447:7.6681166 448:12.146007 449:8.8358307 450:0 451:2.7269864 452:6.7654448 453:15.629764 454:0 455:0 456:0 457:5.9117928 458:0 459:0 460:0 461:0 462:0 463:0 464:13.31952 465:0 466:0 467:0 468:0 469:0 470:21.507986 471:0.91864407 472:0 473:0 474:3.6489525 475:0 476:0 477:22.86799 478:0 479:4.4985971 480:0 481:0 482:14.73662 483:3.4425871 484:0 485:0 486:4.1791611 487:0 488:0 489:0 490:8.5717468 491:1.6000944 492:0 493:3.0570476 494:20.343994 495:0 496:10.627163 497:9.2320156 498:0 499:0 500:3.7235792 #
-0.01 1:9.8497877 2:9.8803129 3:2.805429 4:0 5:9.481679 6:1.7238657 7:0.067210674 8:6.3000131 9:0 10:0 11:2.9083533 12:9.4665966 13:5.1630468 14:0 15:7.1509223 16:0 17:0 18:0.17785276 19:7.7753339 20:11.456683 21:0 22:0 23:2.6329994 24:2.9398167 25:10.747173 26:10.165676 27:1.6705772 28:0 29:0 30:0 31:0 32:16.032141 33:0 34:8.0101337 35:0 36:7.5877738 37:2.3444014 38:0 39:6.6921086 40:3.2301366 41:14.377899 42:13.751102 43:11.496189 44:2.0105045 45:5.87328 46:9.7264614 47:0 48:0 49:5.3502312 50:0 51:0 52:0 53:9.1643305 54:0 55:0 56:4.8588066 57:0 58:7.4056354 59:0 60:0.38694939 61:0 62:7.2904024 63:4.105269 64:0 65:1.5639954 66:0 67:0.75411046 68:5.5055318 69:0 70:2.6890366 71:0 72:7.2102871 73:3.5092468 74:1.0506949 75:1.6067435 76:0 77:0 78:0 79:0 80:0.78900284 81:6.6430697 82:5.0221009 83:3.6174467 84:10.031424 85:0 86:0 87:13.776562 88:16.330051 89:0 90:3.4595022 91:9.8719416 92:0 93:4.5521736 94:0 95:4.3225446 96:0 97:0.81462443 98:0 99:11.839373 100:0 101:2.0322237 102:7.5048661 103:17.107697 104:15.819252 105:5.4067659 106:16.922115 107:0 108:0 109:0 110:19.335968 111:0 112:14.919071 113:0 114:6.7485976 115:0 116:1.4897639 117:0 118:0.6730445 119:0.90989166 120:0 121:8.7249451 122:0 123:5.8812723 124:0 125:1.1263634 126:0 127:6.8620257 128:0 129:6.5798292 130:4.7937951 131:0 132:0 133:10.659834 134:0 135:0 136:0.14319043 137:14.397761 138:8.0456514 139:0 140:8.8736143 141:20.275579 142:0 143:0 144:0.73698235 145:17.920153 146:0 147:0 148:7.8683963 149:0 150:0 151:0 152:8.0283365 153:0 154:8.0450468 155:0 156:0 157:8.0411787 158:0 159:0 160:5.5780406 161:0.22534959 162:4.6335773 163:9.6248865 164:0 165:7.5858359 166:0 167:11.17266 168:3.3000517 169:0 170:4.3174033 171:12.434259 172:0 173:0 174:0 175:0 176:0 177:0 178:17.109167 179:9.6128368 180:0 181:1.2001779 182:18.874653 183:0.83609742 184:0 185:0.55863309 186:5.7597208 187:4.6670365 188:1.3325973 189:0 190:17.149876 191:0 192:3.2660134 193:4.504643 194:0 195:0 196:4.8138247 197:0.84004796 198:0 199:0 200:0 201:5.1974044 202:0 203:0 204:0 205:0 206:0 207:0 208:0 209:3.5761647 210:0 211:0 212:15.380979 213:0 214:4.4224401 215:0 216:0 217:0 218:1.5536236 219:12.477127 220:14.602551 221:0 222:0 223:22.11124 224:0 225:7.1271467 226:2.6888309 227:0 228:0 229:0 230:0 231:0 232:3.8702517 233:7.5507197 234:19.596476 235:7.2875023 236:0 237:0.19656201 238:13.980519 239:0 240:0 241:0 242:18.317852 243:0 244:0 245:5.1083541 246:0 247:4.2661505 248:0 249:0 250:0 251:0 252:0 253:9.6508341 254:0 255:0 256:0 257:2.0081282 258:0 259:10.510258 260:0 261:5.8141766 262:2.6368365 263:0.9167943 264:0.95933723 265:0 266:26.378054 267:0 268:0 269:6.4913015 270:0 271:14.097932 272:1.5266733 273:1.0610675 274:3.9789531 275:0 276:4.0303316 277:12.027595 278:2.1254497 279:15.343102 280:0 281:6.1707969 282:3.3649747 283:6.1754398 284:0 285:3.2658949 286:0 287:8.2466736 288:12.603942 289:0 290:0 291:5.7803626 292:12.255819 293:0 294:0 295:0 296:0 297:4.7698402 298:0.50043166 299:7.9648809 300:3.590337 301:0 302:18.709656 303:6.9760566 304:0 305:0 306:0 307:7.7997909 308:7.4436059 309:0 310:17.506836 311:0 312:0 313:0 314:10.686433 315:0 316:0 317:0 318:15.293425 319:15.656032 320:13.617849 321:0 322:0 323:7.9796066 324:0 325:0 326:0 327:0.24539335 328:4.7737737 329:14.118098 330:18.373781 331:0 332:11.481328 333:0 334:1.7042665 335:2.5050769 336:7.5502563 337:0 338:0 339:10.013535 340:0 341:0 342:0 343:0 344:2.364887 345:0 346:0 347:4.5490117 348:0 349:0 350:0 351:0 352:14.832792 353:0 354:0 355:0 356:11.237137 357:0 358:0 359:4.2189298 360:6.1317749 361:12.497491 362:0 363:0.23633508 364:5.2688279 365:8.3589191 366:0 367:14.91463 368:6.1211133 369:0 370:6.8912659 371:0 372:0 373:5.7688274 374:12.696831 375:0 376:0 377:0 378:18.270199 379:0 380:0 381:0 382:7.6593246 383:0 384:6.9030137 385:0 386:0 387:0 388:0 389:0 390:0 391:0 392:0 393:16.541933 394:0 395:7.3559198 396:7.8587723 397:0 398:0 399:0 400:8.236001 401:16.59544 402:3.5761821 403:9.5938711 404:0 405:0 406:0 407:0 408:4.6216574 409:0 410:16.91947 411:5.4515376 412:0 413:0 414:5.126296 415:13.990523 416:0 417:2.1893539 418:0.90621758 419:4.4863563 420:9.1104803 421:0.49613163 422:1.1664553 423:0 424:0 425:3.8834691 426:3.7424603 427:0 428:0 429:0 430:0 431:8.0841608 432:0 433:0 434:0 435:7.9420495 436:0 437:3.2957902 438:15.08379 439:13.614944 440:0 441:19.893419 442:0 443:0 444:1.1816965 445:0 446:0 447:4.5361781 448:6.8899713 449:5.5503359 450:0 451:0 452:0 453:0 454:0 455:0 456:2.9788809 457:0 458:0.30541962 459:0 460:8.4275274 461:0 462:4.9896026 463:0 464:9.7911358 465:3.8200133 466:0 467:1.8679824 468:3.140837 469:0 470:0 471:11.633677 472:12.028326 473:6.8747015 474:6.2408867 475:23.838598 476:0 477:10.037682 478:0.13700785 479:0 480:6.4429655 481:0 482:0 483:1.1489115 484:0 485:11.597455 486:13.250363 487:2.7941568 488:1.0840999 489:1.624002 490:1.4555953 491:0 492:0 493:0 494:0 495:5.381783 496:0 497:0 498:0 499:0 500:0 #
